Episode,Weights
1,"[[[ 0.         -0.49277354  0.         -0.26975508]
  [-0.48912309  0.         -0.8684585  -0.2701099 ]
  [ 0.          0.          0.          0.        ]
  [ 0.          0.          0.          0.        ]
  [ 0.          0.          0.          0.        ]]

 [[ 0.         -0.25980199  0.         -0.50623299]
  [-0.2669109   0.         -0.54080632 -0.24400443]
  [-0.39336285 -0.29715598  0.          0.        ]
  [-0.32701328  0.          0.          0.        ]
  [ 0.          0.          0.          0.        ]]

 [[ 0.          0.         -0.25804977 -0.40363181]
  [-0.20889872  0.          0.          0.        ]
  [ 0.          0.         -0.28372019  0.        ]
  [ 0.          0.          0.          0.        ]
  [ 0.          0.          0.          0.        ]]

 [[ 0.         -0.32120816  0.          0.        ]
  [ 0.         -0.27317805  0.         -0.13805202]
  [ 0.         -0.273729   -0.27767409  0.        ]
  [-0.27495334  0.          0.          0.        ]
  [ 0.          0.          0.          0.        ]]

 [[ 0.          0.          0.          0.        ]
  [ 0.          0.541875   -0.27293012  0.        ]
  [ 0.          1.5375      0.          0.        ]
  [ 0.          3.75        0.          0.        ]
  [ 0.          0.          0.          0.        ]]]"
2,"[[[ 0.         -0.81474263 -0.89488609 -0.87071118]
  [-0.48912309 -0.54641138 -0.8684585  -0.50223341]
  [-0.29092042  0.         -0.88091419  0.        ]
  [ 0.          0.          0.          0.        ]
  [ 0.          0.          0.          0.        ]]

 [[-1.85213865 -0.5322367  -0.55269874 -0.50623299]
  [-0.6255887  -0.27253333 -0.54080632 -0.24400443]
  [-0.39336285 -0.29715598  0.         -0.27229628]
  [-0.32701328  0.          0.          0.        ]
  [ 0.          0.          0.          0.        ]]

 [[ 0.          0.         -0.25804977 -0.40363181]
  [-0.20889872  0.          0.          0.        ]
  [ 0.         -0.27176951 -0.28372019 -0.26799759]
  [-0.27059892  0.          0.          0.        ]
  [ 0.          0.          0.          0.        ]]

 [[-1.70519201 -0.32120816  0.         -0.04722914]
  [ 0.         -0.27317805  0.         -0.38742284]
  [-0.26221687 -0.273729   -0.27767409  0.        ]
  [-0.27495334  0.          0.          0.        ]
  [ 0.          0.          0.          0.        ]]

 [[ 0.          0.22837969 -0.62089751  0.        ]
  [-0.42940388  1.22015625 -0.27293012  0.        ]
  [ 0.          3.0975      0.          0.        ]
  [ 0.          6.9375      0.          0.        ]
  [ 0.          0.          0.          0.        ]]]"
3,"[[[-1.94058227 -0.99763234 -0.89488609 -1.05369167]
  [-0.48912309 -0.54641138 -0.8684585  -0.7001656 ]
  [-0.29092042  0.         -0.88091419  0.        ]
  [ 0.          0.          0.          0.        ]
  [ 0.          0.          0.          0.        ]]

 [[-1.85213865 -0.74389384 -0.81208455 -0.50623299]
  [-0.86681546 -0.4732591  -0.54080632 -0.24400443]
  [-0.39336285 -0.52463217  0.         -0.47586466]
  [-0.32701328  0.          0.         -0.09184671]
  [-0.06928143  0.          0.         -0.23648315]]

 [[ 0.          0.         -0.25804977 -0.40363181]
  [-0.20889872  0.          0.          0.        ]
  [ 0.         -0.27176951 -0.49352645 -0.26799759]
  [-0.27059892 -0.83100218  0.          0.11595473]
  [-0.44939372 -2.02327457 -0.40360218 -0.53471198]]

 [[-1.70519201 -0.32120816  0.         -0.04722914]
  [ 0.         -0.27317805  0.         -0.38742284]
  [-0.26221687 -0.273729   -0.27767409  0.        ]
  [-0.27495334  1.27527341 -0.45005839  0.        ]
  [-0.23314557 -0.85491551 -0.35222717  3.75      ]]

 [[ 0.          0.22837969 -0.62089751  0.        ]
  [-0.42940388  1.22015625 -0.27293012  0.        ]
  [ 0.          3.0975      0.          0.        ]
  [ 0.          6.9375      0.          0.        ]
  [ 0.          0.          0.          0.        ]]]"
4,"[[[-1.94058227 -0.99763234 -1.69010673 -1.1840115 ]
  [-0.48912309 -0.54641138 -0.8684585  -0.7001656 ]
  [-0.29092042  0.         -0.88091419  0.        ]
  [ 0.          0.          0.          0.        ]
  [ 0.          0.          0.          0.        ]]

 [[-1.85213865 -0.8995208  -0.81208455 -0.50623299]
  [-0.86681546 -0.4732591  -0.54080632 -0.43127208]
  [-0.39336285 -0.52463217  0.         -0.47586466]
  [-0.32701328  0.          0.         -0.09184671]
  [-0.06928143  0.          0.         -0.23648315]]

 [[ 0.          0.         -0.25804977 -0.40363181]
  [-0.20889872  0.          0.         -0.16415182]
  [ 0.         -0.27176951 -0.49352645 -0.26799759]
  [-0.27059892 -0.83100218  0.          0.11595473]
  [-0.44939372 -2.02327457 -0.40360218 -0.53471198]]

 [[-1.70519201 -0.32120816  0.         -0.04722914]
  [ 0.         -0.30462654  0.         -0.38742284]
  [-0.26221687  0.67943891 -0.27767409  0.        ]
  [-0.03235958  2.8746074  -0.45005839  0.        ]
  [-0.23314557 -0.85491551 -0.35222717  6.9375    ]]

 [[ 0.          0.22837969 -0.62089751  0.        ]
  [-0.42940388  1.22015625 -0.27293012  0.        ]
  [ 0.          3.0975      0.          0.        ]
  [ 0.          6.9375      0.          0.        ]
  [ 0.          0.          0.          0.        ]]]"
5,"[[[-1.94058227 -0.99763234 -1.69010673 -1.43464113]
  [-0.48912309 -0.54641138 -0.8684585  -0.7001656 ]
  [-0.29092042  0.         -0.88091419  0.        ]
  [ 0.          0.          0.          0.        ]
  [ 0.          0.          0.          0.        ]]

 [[-1.85213865 -0.8995208  -0.81208455 -0.97265497]
  [-0.86681546 -0.4732591  -0.54080632 -0.43127208]
  [-0.39336285 -0.52463217  0.         -0.47586466]
  [-0.32701328  0.          0.         -0.09184671]
  [-0.06928143  0.          0.         -0.23648315]]

 [[-0.8719043  -0.27089843 -0.25804977 -0.74112356]
  [-0.51427192 -0.5213209   0.         -0.16415182]
  [-0.51932422 -0.27176951 -0.49352645 -0.26799759]
  [-0.27059892 -0.83100218  0.          0.11595473]
  [-0.44939372 -2.02327457 -0.40360218 -0.53471198]]

 [[-1.70519201 -0.32120816  0.         -0.59842142]
  [ 0.         -0.30462654  0.         -0.38742284]
  [-0.26221687  0.67943891 -0.27767409  0.        ]
  [-0.03235958  2.8746074  -0.45005839  0.        ]
  [-0.23314557 -0.85491551 -0.35222717  6.9375    ]]

 [[-0.97579535  0.55924055 -0.62089751 -0.57028136]
  [-0.42940388  1.99881563 -0.27293012  0.        ]
  [ 0.          4.63865625  0.          0.        ]
  [ 0.          9.646875    0.          0.        ]
  [ 0.          0.          0.          0.        ]]]"
6,"[[[-1.94058227 -1.1221627  -1.69010673 -1.43464113]
  [-0.48912309 -0.67561939 -0.8684585  -0.7001656 ]
  [-0.29092042  0.         -0.88091419 -0.13593269]
  [ 0.          0.          0.          0.        ]
  [ 0.          0.          0.          0.        ]]

 [[-1.85213865 -0.8995208  -0.81208455 -0.97265497]
  [-0.86681546 -0.4732591  -0.54080632 -0.43127208]
  [-0.39336285 -0.52463217  0.         -0.44460396]
  [-0.32701328  0.          0.         -0.09184671]
  [-0.06928143  0.          0.         -0.23648315]]

 [[-0.8719043  -0.27089843 -0.25804977 -0.74112356]
  [-0.51427192 -0.5213209   0.         -0.16415182]
  [-0.51932422  0.05280976 -0.49352645 -0.26799759]
  [-0.27059892 -0.83100218  0.          1.04519909]
  [-0.44939372 -2.02327457 -0.40360218 -0.53471198]]

 [[-1.70519201 -0.32120816  0.         -0.59842142]
  [ 0.         -0.30462654  0.         -0.38742284]
  [-0.26221687  0.67943891 -0.27767409  0.        ]
  [-0.03235958  4.44919754 -0.45005839  0.        ]
  [-0.23314557 -0.85491551 -0.35222717  9.646875  ]]

 [[-0.97579535  0.55924055 -0.62089751 -0.57028136]
  [-0.42940388  1.99881563 -0.27293012  0.        ]
  [ 0.          4.63865625  0.          0.        ]
  [ 0.          9.646875    0.          0.        ]
  [ 0.          0.          0.          0.        ]]]"
7,"[[[-2.64214036 -1.76491589 -1.69010673 -1.59781626]
  [-1.66004474 -0.86655294 -1.75309854 -1.33281864]
  [-0.83876968 -0.49202474 -1.6242824  -0.66385527]
  [-0.95900377 -0.31421956 -0.87283891  0.        ]
  [-0.36493234  0.          0.          0.        ]]

 [[-1.85213865 -0.8995208  -1.07595097 -1.42739207]
  [-1.24918462 -0.84822227 -1.30463398 -0.64518329]
  [-0.64423576 -0.74116852 -0.49724794 -0.44460396]
  [-0.32701328 -0.32273595 -0.54277751 -0.09184671]
  [-0.45313909  0.          0.         -0.23648315]]

 [[-0.8719043  -0.78174851 -0.56276996 -0.74112356]
  [-0.51427192 -0.5213209  -0.68910705 -0.46550812]
  [-0.51932422  0.05280976 -0.49352645 -0.26799759]
  [-0.27059892 -0.83100218  0.          1.04519909]
  [-0.44939372 -2.02327457 -0.40360218 -0.53471198]]

 [[-1.70519201 -0.69132818  0.         -0.59842142]
  [-0.43581437 -0.30462654 -0.3889018   0.1722143 ]
  [-0.26221687  0.67943891 -0.27767409  0.        ]
  [-0.03235958  4.44919754 -0.45005839  0.        ]
  [-0.23314557 -0.85491551 -0.35222717  9.646875  ]]

 [[-0.97579535  0.55924055 -0.62089751 -0.57028136]
  [-0.42940388  2.84700141 -0.27293012  0.        ]
  [ 0.          6.13152187  0.          0.        ]
  [ 0.         11.94984375  0.          0.        ]
  [ 0.          0.          0.          0.        ]]]"
8,"[[[-2.64214036 -1.76491589 -2.45642309 -1.71809888]
  [-1.66004474 -0.86655294 -1.75309854 -1.33281864]
  [-0.83876968 -0.49202474 -1.6242824  -0.66385527]
  [-0.95900377 -0.31421956 -0.87283891  0.        ]
  [-0.36493234  0.          0.          0.        ]]

 [[-1.85213865 -1.09623137 -1.07595097 -1.42739207]
  [-1.24918462 -0.84822227 -1.30463398 -0.98756252]
  [-0.64423576 -0.74116852 -0.49724794 -0.44460396]
  [-0.32701328 -0.32273595 -0.54277751 -0.09184671]
  [-0.45313909  0.          0.         -0.23648315]]

 [[-0.8719043  -0.78174851 -0.56276996 -0.74112356]
  [-0.51427192 -0.5213209  -0.89804137 -0.56266628]
  [-0.51932422  0.47628808 -0.49352645 -0.26799759]
  [-0.27059892 -0.83100218  0.          2.02363888]
  [-0.44939372 -2.02327457 -0.40360218 -0.53471198]]

 [[-1.70519201 -0.70194932  0.         -0.59842142]
  [-0.52522173 -0.27700275 -0.3889018   0.1722143 ]
  [-0.26221687  0.67943891 -0.18832841  0.        ]
  [-0.03235958  5.97048197 -0.45005839  0.        ]
  [-0.23314557 -0.85491551 -0.35222717 11.94984375]]

 [[-0.97579535  0.55924055 -0.62089751 -0.57028136]
  [-0.42940388  2.84700141 -0.27293012  0.        ]
  [ 0.          6.13152187  0.          0.        ]
  [ 0.         11.94984375  0.          0.        ]
  [ 0.          0.          0.          0.        ]]]"
9,"[[[-2.64214036 -1.84399749 -2.45642309 -1.71809888]
  [-1.66004474 -1.11396348 -1.75309854 -1.33281864]
  [-1.02610874 -0.5220466  -1.6242824  -0.66385527]
  [-0.95900377 -0.31421956 -0.87283891  0.10260983]
  [-0.36493234  0.          0.          0.        ]]

 [[-1.85213865 -1.09623137 -1.07595097 -1.42739207]
  [-1.24918462 -0.84822227 -1.30463398 -0.98756252]
  [-0.64423576 -0.74116852 -0.49724794 -0.44460396]
  [-0.32701328 -0.32273595 -0.54277751  0.49706248]
  [-0.45313909  0.          0.         -0.23648315]]

 [[-0.8719043  -0.78174851 -0.56276996 -0.74112356]
  [-0.51427192 -0.5213209  -0.89804137 -0.56266628]
  [-0.51932422  0.47628808 -0.49352645 -0.26799759]
  [-0.27059892 -0.83100218  0.          3.02795209]
  [-0.44939372 -2.02327457 -0.40360218 -0.53471198]]

 [[-1.70519201 -0.70194932  0.         -0.59842142]
  [-0.52522173 -0.27700275 -0.3889018   0.1722143 ]
  [-0.26221687  0.67943891 -0.18832841  0.        ]
  [-0.03235958  7.41902413 -0.45005839  0.        ]
  [-0.23314557 -0.85491551 -0.35222717 13.90736719]]

 [[-0.97579535  0.55924055 -0.62089751 -0.57028136]
  [-0.42940388  2.84700141 -0.27293012  0.        ]
  [ 0.          6.13152187  0.          0.        ]
  [ 0.         11.94984375  0.          0.        ]
  [ 0.          0.          0.          0.        ]]]"
10,"[[[-2.64214036 -1.84399749 -2.45642309 -1.91451561]
  [-1.66004474 -1.11396348 -1.75309854 -1.33281864]
  [-1.02610874 -0.5220466  -1.6242824  -0.66385527]
  [-0.95900377 -0.31421956 -0.87283891  0.10260983]
  [-0.36493234  0.          0.          0.        ]]

 [[-1.85213865 -1.09623137 -1.07595097 -1.78045469]
  [-1.24918462 -0.84822227 -1.30463398 -0.98756252]
  [-0.64423576 -0.74116852 -0.49724794 -0.44460396]
  [-0.32701328 -0.32273595 -0.54277751  0.49706248]
  [-0.45313909  0.          0.         -0.23648315]]

 [[-1.63012093 -0.7794928  -0.56276996 -0.88118652]
  [-0.51427192 -0.5213209  -0.89804137 -0.33062154]
  [-0.51932422  0.47628808 -0.49352645 -0.26799759]
  [-0.27059892 -0.83100218  0.          3.02795209]
  [-0.44939372 -2.02327457 -0.40360218 -0.53471198]]

 [[-1.70519201 -0.70194932 -0.22495888 -0.59842142]
  [-0.52522173 -0.27700275 -0.3889018   0.7819829 ]
  [-0.26221687  0.67943891 -0.18832841  0.        ]
  [-0.03235958  7.41902413 -0.45005839  0.        ]
  [-0.23314557 -0.85491551 -0.35222717 13.90736719]]

 [[-0.97579535  0.55924055 -0.62089751 -0.57028136]
  [-0.42940388  3.73868043 -0.27293012  0.        ]
  [ 0.          7.55590805  0.          0.        ]
  [ 0.         13.90736719  0.          0.        ]
  [ 0.          0.          0.          0.        ]]]"
11,"[[[-2.64214036 -1.93436201 -3.14148877 -2.01467013]
  [-1.66004474 -1.11396348 -1.75309854 -1.48077214]
  [-1.02610874 -0.5220466  -1.6242824  -0.66385527]
  [-0.95900377 -0.31421956 -0.87283891  0.10260983]
  [-0.36493234  0.          0.          0.        ]]

 [[-1.85213865 -1.41538875 -1.63129748 -1.94669515]
  [-1.59419051 -0.84822227 -1.30463398 -1.14941178]
  [-0.64423576 -0.74116852 -0.49724794 -0.44460396]
  [-0.32701328 -0.32273595 -0.54277751  0.49706248]
  [-0.45313909  0.          0.         -0.23648315]]

 [[-1.63012093 -0.90793815 -1.02351377 -0.97043559]
  [-0.88334991 -0.5213209  -0.89804137 -0.33062154]
  [-0.51932422  0.47628808 -0.49352645 -0.26799759]
  [-0.27059892 -0.83100218  0.          3.02795209]
  [-0.44939372 -2.02327457 -0.40360218 -0.53471198]]

 [[-1.70519201 -0.70194932 -0.50424698 -0.2762942 ]
  [-0.52522173 -0.27700275 -0.3889018   0.7819829 ]
  [-0.26221687  0.67943891 -0.18832841  0.        ]
  [-0.03235958  7.41902413 -0.45005839  0.        ]
  [-0.23314557 -0.85491551 -0.35222717 13.90736719]]

 [[-0.97579535  1.24116618 -0.62089751 -0.57028136]
  [-0.42940388  4.65221343 -0.27293012  0.        ]
  [ 0.          8.89876912  0.          0.        ]
  [ 0.         15.57126211  0.          0.        ]
  [ 0.          0.          0.          0.        ]]]"
12,"[[[-2.64214036 -1.9652082  -3.14148877 -2.37256248]
  [-1.66004474 -1.11396348 -1.75309854 -1.52658418]
  [-1.02610874 -0.5220466  -1.6242824  -0.66385527]
  [-0.95900377 -0.31421956 -0.87283891  0.10260983]
  [-0.36493234  0.          0.          0.        ]]

 [[-2.56106173 -1.41538875 -1.81162252 -2.04817603]
  [-1.59419051 -0.84822227 -1.30463398 -1.15700701]
  [-0.64423576 -0.74116852 -0.49724794 -0.44460396]
  [-0.32701328 -0.32273595 -0.54277751  0.49706248]
  [-0.45313909  0.          0.         -0.23648315]]

 [[-1.63012093 -0.90793815 -1.29221046 -0.97043559]
  [-0.88334991 -0.5213209  -0.89804137 -0.29811729]
  [-0.51932422  0.47628808 -0.49352645 -0.26799759]
  [-0.27059892 -0.83100218  0.          3.02795209]
  [-0.44939372 -2.02327457 -0.40360218 -0.53471198]]

 [[-1.70519201 -0.70194932 -0.50424698  0.09988223]
  [-0.46445879 -0.27700275 -0.3889018   0.7819829 ]
  [-0.26221687  0.67943891 -0.18832841  0.        ]
  [-0.03235958  7.41902413 -0.45005839  0.        ]
  [-0.23314557 -0.85491551 -0.35222717 13.90736719]]

 [[-0.97579535  1.94599921 -0.62089751 -0.57028136]
  [-0.42940388  5.56990042 -0.27293012  0.        ]
  [ 0.         10.15251395  0.          0.        ]
  [ 0.         16.98557279  0.          0.        ]
  [ 0.          0.          0.          0.        ]]]"
13,"[[[-2.64214036 -2.06460469 -3.69629606 -2.37340758]
  [-2.08420498 -1.32239158 -1.75309854 -1.52658418]
  [-1.37065614 -0.5220466  -1.6242824  -0.66385527]
  [-0.95900377 -0.31421956 -0.87283891  0.10260983]
  [-0.36493234  0.          0.          0.        ]]

 [[-2.56106173 -1.45017096 -1.81162252 -2.04817603]
  [-1.59419051 -0.8095123  -1.30463398 -1.15700701]
  [-0.64423576 -0.74116852 -0.49724794 -0.17460805]
  [-0.32701328 -0.32273595 -0.54277751  0.49706248]
  [-0.45313909  0.          0.         -0.23648315]]

 [[-1.63012093 -0.90793815 -1.29221046 -0.97043559]
  [-0.88334991 -0.5213209  -0.89804137 -0.29811729]
  [-0.51932422  1.11852457 -0.49352645 -0.26799759]
  [-0.27059892 -0.83100218  0.          4.03885468]
  [-0.44939372 -2.02327457 -0.40360218 -0.53471198]]

 [[-1.70519201 -0.70194932 -0.50424698  0.09988223]
  [-0.46445879 -0.27700275 -0.3889018   0.7819829 ]
  [-0.26221687  0.67943891 -0.18832841  0.        ]
  [-0.03235958  8.78241779 -0.45005839  0.        ]
  [-0.23314557 -0.85491551 -0.35222717 15.57126211]]

 [[-0.97579535  1.94599921 -0.62089751 -0.57028136]
  [-0.42940388  5.56990042 -0.27293012  0.        ]
  [ 0.         10.15251395  0.          0.        ]
  [ 0.         16.98557279  0.          0.        ]
  [ 0.          0.          0.          0.        ]]]"
14,"[[[-2.64214036 -2.06460469 -3.69629606 -2.40359347]
  [-2.08420498 -1.32239158 -1.75309854 -1.52658418]
  [-1.37065614 -0.46788558 -1.6242824  -0.66385527]
  [-0.95900377 -0.31421956 -0.87283891  0.35150251]
  [-0.36493234  0.          0.          0.        ]]

 [[-2.56106173 -1.54000196 -1.81162252 -2.04817603]
  [-1.59419051 -0.91634003 -1.30463398 -1.15700701]
  [-0.64423576 -0.74116852 -0.61876458 -0.17460805]
  [-0.32701328 -0.32273595 -0.54277751  1.26857518]
  [-0.45313909  0.          0.         -0.23648315]]

 [[-1.63012093 -0.90793815 -1.29221046 -0.97043559]
  [-0.88334991 -0.5213209  -0.89804137 -0.29811729]
  [-0.51932422  1.11852457 -0.49352645 -0.26799759]
  [-0.27059892 -0.83100218  0.          5.04069177]
  [-0.44939372 -2.02327457 -0.40360218 -0.53471198]]

 [[-1.70519201 -0.70194932 -0.50424698  0.09988223]
  [-0.46445879 -0.27700275 -0.3889018   0.7819829 ]
  [-0.26221687  0.67943891 -0.18832841  0.        ]
  [-0.03235958 10.05361532 -0.45005839  0.        ]
  [-0.23314557 -0.85491551 -0.35222717 16.98557279]]

 [[-0.97579535  1.94599921 -0.62089751 -0.57028136]
  [-0.42940388  5.56990042 -0.27293012  0.        ]
  [ 0.         10.15251395  0.          0.        ]
  [ 0.         16.98557279  0.          0.        ]
  [ 0.          0.          0.          0.        ]]]"
15,"[[[-2.64214036 -2.06097485 -3.69629606 -2.40359347]
  [-2.08420498 -1.27247603 -1.75309854 -1.52658418]
  [-1.37065614 -0.46788558 -1.6242824  -0.52003001]
  [-0.95900377 -0.31421956 -0.87283891  0.35150251]
  [-0.36493234  0.          0.          0.        ]]

 [[-2.56106173 -1.54000196 -1.81162252 -2.04817603]
  [-1.59419051 -0.91634003 -1.30463398 -1.15700701]
  [-0.64423576 -0.25712617 -0.61876458 -0.17460805]
  [-0.32701328 -0.32273595 -0.54277751  2.04992946]
  [-0.45313909  0.          0.         -0.23648315]]

 [[-1.63012093 -0.90793815 -1.29221046 -0.97043559]
  [-0.88334991 -0.5213209  -0.89804137 -0.29811729]
  [-0.51932422  1.11852457 -0.49352645 -0.26799759]
  [-0.27059892 -0.83100218  0.          6.02101881]
  [-0.44939372 -2.02327457 -0.40360218 -0.53471198]]

 [[-1.70519201 -0.70194932 -0.50424698  0.09988223]
  [-0.46445879 -0.27700275 -0.3889018   0.7819829 ]
  [-0.26221687  0.67943891 -0.18832841  0.        ]
  [-0.03235958 11.22959918 -0.45005839  0.        ]
  [-0.23314557 -0.85491551 -0.35222717 18.18773687]]

 [[-0.97579535  1.94599921 -0.62089751 -0.57028136]
  [-0.42940388  5.56990042 -0.27293012  0.        ]
  [ 0.         10.15251395  0.          0.        ]
  [ 0.         16.98557279  0.          0.        ]
  [ 0.          0.          0.          0.        ]]]"
16,"[[[-2.64214036 -2.06097485 -3.69629606 -2.67724686]
  [-2.08420498 -1.27247603 -1.75309854 -1.52658418]
  [-1.37065614 -0.46788558 -1.6242824  -0.52003001]
  [-0.95900377 -0.31421956 -0.87283891  0.35150251]
  [-0.36493234  0.          0.          0.        ]]

 [[-3.17504428 -1.58339513 -1.81162252 -2.04817603]
  [-1.69801284 -0.91634003 -1.30463398 -0.992727  ]
  [-0.64423576 -0.25712617 -0.61876458 -0.17460805]
  [-0.32701328 -0.32273595 -0.54277751  2.04992946]
  [-0.45313909  0.          0.         -0.23648315]]

 [[-1.63012093 -0.90793815 -1.29221046 -0.97043559]
  [-0.88334991 -0.5213209  -0.89804137  0.10404893]
  [-0.51932422  1.11852457 -0.49352645 -0.26799759]
  [-0.27059892 -0.83100218  0.          6.02101881]
  [-0.44939372 -2.02327457 -0.40360218 -0.53471198]]

 [[-1.70519201 -0.70194932 -0.50424698  0.09988223]
  [-0.46445879 -0.27700275 -0.3889018   1.67505165]
  [-0.26221687  0.67943891 -0.18832841  0.        ]
  [-0.03235958 11.22959918 -0.45005839  0.        ]
  [-0.23314557 -0.85491551 -0.35222717 18.18773687]]

 [[-0.97579535  1.94599921 -0.62089751 -0.57028136]
  [-0.42940388  6.47752182 -0.27293012  0.        ]
  [ 0.         11.31366302  0.          0.        ]
  [ 0.         18.18773687  0.          0.        ]
  [ 0.          0.          0.          0.        ]]]"
17,"[[[-2.64214036 -2.06097485 -3.69629606 -2.60805073]
  [-2.08420498 -1.27247603 -1.75309854 -1.52658418]
  [-1.37065614 -0.46788558 -1.6242824  -0.52003001]
  [-0.95900377 -0.31421956 -0.87283891  0.35150251]
  [-0.36493234  0.          0.          0.        ]]

 [[-3.17504428 -1.51368969 -1.81162252 -2.04817603]
  [-1.69801284 -0.91634003 -1.30463398 -0.75738904]
  [-0.64423576 -0.25712617 -0.61876458 -0.17460805]
  [-0.32701328 -0.32273595 -0.54277751  2.04992946]
  [-0.45313909  0.          0.         -0.23648315]]

 [[-1.63012093 -0.90793815 -1.29221046 -0.97043559]
  [-0.88334991 -0.02713801 -0.89804137  0.10404893]
  [-0.51932422  2.04071111 -0.49352645 -0.26799759]
  [-0.27059892 -0.83100218  0.          6.97019144]
  [-0.44939372 -2.02327457 -0.40360218 -0.53471198]]

 [[-1.70519201 -0.70194932 -0.50424698  0.09988223]
  [-0.46445879 -0.27700275 -0.3889018   1.67505165]
  [-0.26221687  0.67943891 -0.18832841  0.        ]
  [-0.03235958 12.31033154 -0.45005839  0.        ]
  [-0.23314557 -0.85491551 -0.35222717 19.20957634]]

 [[-0.97579535  1.94599921 -0.62089751 -0.57028136]
  [-0.42940388  6.47752182 -0.27293012  0.        ]
  [ 0.         11.31366302  0.          0.        ]
  [ 0.         18.18773687  0.          0.        ]
  [ 0.          0.          0.          0.        ]]]"
18,"[[[-2.64214036 -2.04682145 -3.69629606 -2.60805073]
  [-2.08420498 -1.21293951 -1.75309854 -1.52658418]
  [-1.37065614 -0.28604187 -1.6242824  -0.52003001]
  [-0.95900377 -0.31421956 -0.87283891  0.82752037]
  [-0.36493234  0.          0.          0.        ]]

 [[-3.17504428 -1.51368969 -1.81162252 -2.04817603]
  [-1.69801284 -0.91634003 -1.30463398 -0.75738904]
  [-0.64423576 -0.25712617 -0.61876458 -0.17460805]
  [-0.32701328 -0.32273595 -0.54277751  2.94326893]
  [-0.45313909  0.          0.         -0.23648315]]

 [[-1.63012093 -0.90793815 -1.29221046 -0.97043559]
  [-0.88334991 -0.02713801 -0.89804137  0.10404893]
  [-0.51932422  2.04071111 -0.49352645 -0.26799759]
  [-0.27059892 -0.83100218  0.          7.88097599]
  [-0.44939372 -2.02327457 -0.40360218 -0.53471198]]

 [[-1.70519201 -0.70194932 -0.50424698  0.09988223]
  [-0.46445879 -0.27700275 -0.3889018   1.67505165]
  [-0.26221687  0.67943891 -0.18832841  0.        ]
  [-0.03235958 13.29792822 -0.45005839  0.        ]
  [-0.23314557 -0.85491551 -0.35222717 20.07813989]]

 [[-0.97579535  1.94599921 -0.62089751 -0.57028136]
  [-0.42940388  6.47752182 -0.27293012  0.        ]
  [ 0.         11.31366302  0.          0.        ]
  [ 0.         18.18773687  0.          0.        ]
  [ 0.          0.          0.          0.        ]]]"
19,"[[[-2.64214036 -2.01580299 -3.69629606 -2.60805073]
  [-2.08420498 -1.21293951 -1.75309854 -1.4427129 ]
  [-1.37065614 -0.28604187 -1.6242824  -0.52003001]
  [-0.95900377 -0.31421956 -0.87283891  0.82752037]
  [-0.36493234  0.          0.          0.        ]]

 [[-3.17504428 -1.51368969 -1.81162252 -2.04817603]
  [-1.69801284 -0.91634003 -1.30463398 -0.51931976]
  [-0.64423576 -0.25712617 -0.61876458 -0.17460805]
  [-0.32701328 -0.32273595 -0.54277751  2.94326893]
  [-0.45313909  0.          0.         -0.23648315]]

 [[-1.63012093 -0.90793815 -1.29221046 -0.97043559]
  [-0.88334991  0.55156047 -0.89804137  0.10404893]
  [-0.51932422  3.03878172 -0.49352645 -0.26799759]
  [-0.27059892 -0.83100218  0.          8.74818824]
  [-0.44939372 -2.02327457 -0.40360218 -0.53471198]]

 [[-1.70519201 -0.70194932 -0.50424698  0.09988223]
  [-0.46445879 -0.27700275 -0.3889018   1.67505165]
  [-0.26221687  0.67943891 -0.18832841  0.        ]
  [-0.03235958 14.19601343 -0.45005839  0.        ]
  [-0.23314557 -0.85491551 -0.35222717 20.81641891]]

 [[-0.97579535  1.94599921 -0.62089751 -0.57028136]
  [-0.42940388  6.47752182 -0.27293012  0.        ]
  [ 0.         11.31366302  0.          0.        ]
  [ 0.         18.18773687  0.          0.        ]
  [ 0.          0.          0.          0.        ]]]"
20,"[[[-4.22354387 -2.29822052 -3.69629606 -2.60805073]
  [-2.08420498 -1.10523194 -2.35541218 -1.4427129 ]
  [-1.37065614 -0.031859   -1.6242824  -0.52003001]
  [-0.95900377 -0.31421956 -0.87283891  1.38210112]
  [-0.36493234  0.          0.          0.        ]]

 [[-3.17504428 -1.51368969 -1.81162252 -2.04817603]
  [-1.69801284 -0.91634003 -1.30463398 -0.51931976]
  [-0.64423576 -0.25712617 -0.61876458 -0.17460805]
  [-0.32701328 -0.32273595 -0.54277751  3.90186338]
  [-0.45313909  0.          0.         -0.23648315]]

 [[-1.63012093 -0.90793815 -1.29221046 -0.97043559]
  [-0.88334991  0.55156047 -0.89804137  0.10404893]
  [-0.51932422  3.03878172 -0.49352645 -0.26799759]
  [-0.27059892 -0.83100218  0.          9.56836464]
  [-0.44939372 -2.02327457 -0.40360218 -0.53471198]]

 [[-1.70519201 -0.70194932 -0.50424698  0.09988223]
  [-0.46445879 -0.27700275 -0.3889018   1.67505165]
  [-0.26221687  0.67943891 -0.18832841  0.        ]
  [-0.03235958 15.00921969 -0.45005839  0.        ]
  [-0.23314557 -0.85491551 -0.35222717 21.44395607]]

 [[-0.97579535  1.94599921 -0.62089751 -0.57028136]
  [-0.42940388  6.47752182 -0.27293012  0.        ]
  [ 0.         11.31366302  0.          0.        ]
  [ 0.         18.18773687  0.          0.        ]
  [ 0.          0.          0.          0.        ]]]"
21,"[[[-4.22354387 -2.19842214 -3.69629606 -2.60805073]
  [-2.08420498 -0.98462835 -2.35541218 -1.4427129 ]
  [-1.37065614 -0.031859   -1.6242824  -0.27754165]
  [-0.95900377 -0.31421956 -0.87283891  1.38210112]
  [-0.36493234  0.          0.          0.        ]]

 [[-3.17504428 -1.51368969 -1.81162252 -2.04817603]
  [-1.69801284 -0.91634003 -1.30463398 -0.51931976]
  [-0.64423576 -0.25712617 -0.61876458  0.57662739]
  [-0.32701328 -0.32273595 -0.54277751  3.90186338]
  [-0.45313909  0.          0.         -0.23648315]]

 [[-1.63012093 -0.90793815 -1.29221046 -0.97043559]
  [-0.88334991  0.55156047 -0.89804137  0.10404893]
  [-0.51932422  4.07168994 -0.49352645 -0.26799759]
  [-0.27059892 -0.83100218  0.         10.33946743]
  [-0.44939372 -2.02327457 -0.40360218 -0.53471198]]

 [[-1.70519201 -0.70194932 -0.50424698  0.09988223]
  [-0.46445879 -0.27700275 -0.3889018   1.67505165]
  [-0.26221687  0.67943891 -0.18832841  0.        ]
  [-0.03235958 15.74280377 -0.45005839  0.        ]
  [-0.23314557 -0.85491551 -0.35222717 21.97736266]]

 [[-0.97579535  1.94599921 -0.62089751 -0.57028136]
  [-0.42940388  6.47752182 -0.27293012  0.        ]
  [ 0.         11.31366302  0.          0.        ]
  [ 0.         18.18773687  0.          0.        ]
  [ 0.          0.          0.          0.        ]]]"
22,"[[[-4.22354387 -2.19842214 -3.69629606 -2.48695518]
  [-2.08420498 -0.98462835 -2.35541218 -1.4427129 ]
  [-1.37065614 -0.031859   -1.6242824  -0.27754165]
  [-0.95900377 -0.31421956 -0.87283891  1.38210112]
  [-0.36493234  0.          0.          0.        ]]

 [[-3.17504428 -1.32649847 -1.81162252 -2.04817603]
  [-1.69801284 -0.51579352 -1.30463398 -0.51931976]
  [-0.64423576 -0.25712617 -0.61876458  1.3216292 ]
  [-0.32701328 -0.32273595 -0.54277751  3.90186338]
  [-0.45313909  0.          0.         -0.23648315]]

 [[-1.63012093 -0.90793815 -1.29221046 -0.97043559]
  [-0.88334991  0.55156047 -0.89804137  0.10404893]
  [-0.51932422  5.03128499 -0.49352645 -0.26799759]
  [-0.27059892 -0.83100218  0.         11.06062396]
  [-0.44939372 -2.02327457 -0.40360218 -0.53471198]]

 [[-1.70519201 -0.70194932 -0.50424698  0.09988223]
  [-0.46445879 -0.27700275 -0.3889018   1.67505165]
  [-0.26221687  0.67943891 -0.18832841  0.        ]
  [-0.03235958 16.40235518 -0.45005839  0.        ]
  [-0.23314557 -0.85491551 -0.35222717 22.43075826]]

 [[-0.97579535  1.94599921 -0.62089751 -0.57028136]
  [-0.42940388  6.47752182 -0.27293012  0.        ]
  [ 0.         11.31366302  0.          0.        ]
  [ 0.         18.18773687  0.          0.        ]
  [ 0.          0.          0.          0.        ]]]"
23,"[[[-4.22354387 -2.09770084 -3.69629606 -2.49882054]
  [-2.21737744 -0.84172055 -2.35541218 -1.4427129 ]
  [-1.37065614  0.30039549 -1.6242824  -0.27754165]
  [-0.95900377 -0.31421956 -0.87283891  2.02852776]
  [-0.36493234  0.          0.          0.        ]]

 [[-3.17504428 -1.32649847 -1.93569218 -2.04817603]
  [-1.69801284 -0.51579352 -1.30463398 -0.51931976]
  [-0.64423576 -0.25712617 -0.61876458  1.3216292 ]
  [-0.32701328 -0.32273595 -0.54277751  4.96184171]
  [-0.45313909  0.          0.         -0.23648315]]

 [[-1.63012093 -0.90793815 -1.29221046 -0.97043559]
  [-0.88334991  0.55156047 -0.89804137  0.10404893]
  [-0.51932422  5.03128499 -0.49352645 -0.26799759]
  [-0.27059892 -0.83100218  0.         11.73189863]
  [-0.44939372 -2.02327457 -0.40360218 -0.53471198]]

 [[-1.70519201 -0.70194932 -0.50424698  0.09988223]
  [-0.46445879 -0.27700275 -0.3889018   1.67505165]
  [-0.26221687  0.67943891 -0.18832841  0.        ]
  [-0.03235958 16.99357809 -0.45005839  0.        ]
  [-0.23314557 -0.85491551 -0.35222717 22.81614452]]

 [[-0.97579535  1.94599921 -0.62089751 -0.57028136]
  [-0.42940388  6.47752182 -0.27293012  0.        ]
  [ 0.         11.31366302  0.          0.        ]
  [ 0.         18.18773687  0.          0.        ]
  [ 0.          0.          0.          0.        ]]]"
24,"[[[-4.22354387 -1.96375736 -3.69629606 -2.49882054]
  [-2.21737744 -0.65745249 -2.35541218 -1.4427129 ]
  [-1.37065614  0.67252122 -1.6242824  -0.27754165]
  [-0.95900377 -0.31421956 -0.87283891  2.68038067]
  [-0.36493234  0.          0.          0.        ]]

 [[-3.17504428 -1.32649847 -1.93569218 -2.04817603]
  [-1.69801284 -0.51579352 -1.30463398 -0.51931976]
  [-0.64423576 -0.25712617 -0.61876458  1.3216292 ]
  [-0.32701328 -0.32273595 -0.54277751  5.93136047]
  [-0.45313909  0.          0.         -0.23648315]]

 [[-1.63012093 -0.90793815 -1.29221046 -0.97043559]
  [-0.88334991  0.55156047 -0.89804137  0.10404893]
  [-0.51932422  5.03128499 -0.49352645 -0.26799759]
  [-0.27059892 -0.83100218  0.         12.35409574]
  [-0.44939372 -2.02327457 -0.40360218 -0.53471198]]

 [[-1.70519201 -0.70194932 -0.50424698  0.09988223]
  [-0.46445879 -0.27700275 -0.3889018   1.67505165]
  [-0.26221687  0.67943891 -0.18832841  0.        ]
  [-0.03235958 17.52213113 -0.45005839  0.        ]
  [-0.23314557 -0.85491551 -0.35222717 23.14372284]]

 [[-0.97579535  1.94599921 -0.62089751 -0.57028136]
  [-0.42940388  6.47752182 -0.27293012  0.        ]
  [ 0.         11.31366302  0.          0.        ]
  [ 0.         18.18773687  0.          0.        ]
  [ 0.          0.          0.          0.        ]]]"
25,"[[[-4.22354387 -1.80872638 -3.69629606 -2.49882054]
  [-2.21737744 -0.43695591 -2.35541218 -1.4427129 ]
  [-1.37065614  1.07493976 -1.6242824  -0.27754165]
  [-0.95900377 -0.31421956 -0.87283891  3.32803697]
  [-0.36493234  0.          0.          0.        ]]

 [[-3.17504428 -1.32649847 -1.93569218 -2.04817603]
  [-1.69801284 -0.51579352 -1.30463398 -0.51931976]
  [-0.64423576 -0.25712617 -0.61876458  1.3216292 ]
  [-0.32701328 -0.32273595 -0.54277751  6.81798211]
  [-0.45313909  0.          0.         -0.23648315]]

 [[-1.63012093 -0.90793815 -1.29221046 -0.97043559]
  [-0.88334991  0.55156047 -0.89804137  0.10404893]
  [-0.51932422  5.03128499 -0.49352645 -0.26799759]
  [-0.27059892 -0.83100218  0.         12.92859082]
  [-0.44939372 -2.02327457 -0.40360218 -0.53471198]]

 [[-1.70519201 -0.70194932 -0.50424698  0.09988223]
  [-0.46445879 -0.27700275 -0.3889018   1.67505165]
  [-0.26221687  0.67943891 -0.18832841  0.        ]
  [-0.03235958 17.99351275 -0.45005839  0.        ]
  [-0.23314557 -0.85491551 -0.35222717 23.42216442]]

 [[-0.97579535  1.94599921 -0.62089751 -0.57028136]
  [-0.42940388  6.47752182 -0.27293012  0.        ]
  [ 0.         11.31366302  0.          0.        ]
  [ 0.         18.18773687  0.          0.        ]
  [ 0.          0.          0.          0.        ]]]"
26,"[[[-4.22354387 -1.75360298 -3.69629606 -2.49882054]
  [-2.21737744 -0.45294814 -2.35541218 -1.4427129 ]
  [-1.37065614  1.49916623 -1.79462126 -0.27754165]
  [-0.95900377 -0.31421956 -0.87283891  3.96399794]
  [-0.36493234  0.          0.          0.        ]]

 [[-3.17504428 -1.32649847 -1.93569218 -2.04817603]
  [-1.69801284 -0.51579352 -1.30463398 -0.51931976]
  [-0.64423576 -0.25712617 -0.61876458  1.3216292 ]
  [-0.32701328 -0.32273595 -0.54277751  7.62851308]
  [-0.45313909  0.          0.         -0.23648315]]

 [[-1.63012093 -0.90793815 -1.29221046 -0.97043559]
  [-0.88334991  0.55156047 -0.89804137  0.10404893]
  [-0.51932422  5.03128499 -0.49352645 -0.26799759]
  [-0.27059892 -0.83100218  0.         13.45718755]
  [-0.44939372 -2.02327457 -0.40360218 -0.53471198]]

 [[-1.70519201 -0.70194932 -0.50424698  0.09988223]
  [-0.46445879 -0.27700275 -0.3889018   1.67505165]
  [-0.26221687  0.67943891 -0.18832841  0.        ]
  [-0.03235958 18.41298194 -0.45005839  0.        ]
  [-0.23314557 -0.85491551 -0.35222717 23.65883975]]

 [[-0.97579535  1.94599921 -0.62089751 -0.57028136]
  [-0.42940388  6.47752182 -0.27293012  0.        ]
  [ 0.         11.31366302  0.          0.        ]
  [ 0.         18.18773687  0.          0.        ]
  [ 0.          0.          0.          0.        ]]]"
27,"[[[-4.22354387 -1.75360298 -3.69629606 -2.42061712]
  [-2.21737744 -0.45294814 -2.35541218 -1.4427129 ]
  [-1.37065614  1.49916623 -1.79462126 -0.27754165]
  [-0.95900377 -0.31421956 -0.87283891  3.96399794]
  [-0.36493234  0.          0.          0.        ]]

 [[-3.17504428 -1.25437038 -1.93569218 -2.04817603]
  [-1.69801284 -0.51579352 -1.30463398 -0.31312989]
  [-0.64423576 -0.25712617 -0.61876458  1.3216292 ]
  [-0.32701328 -0.32273595 -0.54277751  7.62851308]
  [-0.45313909  0.          0.         -0.23648315]]

 [[-1.63012093 -0.90793815 -1.29221046 -0.97043559]
  [-0.88334991  0.55156047 -0.89804137  0.55700725]
  [-0.51932422  5.03128499 -0.49352645 -0.26799759]
  [-0.27059892 -0.83100218  0.         13.45718755]
  [-0.44939372 -2.02327457 -0.40360218 -0.53471198]]

 [[-1.70519201 -0.70194932 -0.50424698  0.09988223]
  [-0.46445879 -0.27700275 -0.3889018   2.54712652]
  [-0.26221687  0.67943891 -0.18832841  0.        ]
  [-0.03235958 18.41298194 -0.45005839  0.        ]
  [-0.23314557 -0.85491551 -0.35222717 23.65883975]]

 [[-0.97579535  1.94599921 -0.62089751 -0.57028136]
  [-0.42940388  7.36389331 -0.27293012  0.        ]
  [ 0.         12.38178581  0.          0.        ]
  [ 0.         19.20957634  0.          0.        ]
  [ 0.          0.          0.          0.        ]]]"
28,"[[[-4.22354387 -1.55874564 -3.69629606 -2.42061712]
  [-2.21737744 -0.13524838 -2.35541218 -1.4427129 ]
  [-1.37065614  1.93776645 -1.79462126 -0.27754165]
  [-0.95900377 -0.31421956 -0.87283891  4.58252114]
  [-0.36493234  0.          0.          0.        ]]

 [[-3.17504428 -1.25437038 -1.93569218 -2.04817603]
  [-1.69801284 -0.51579352 -1.30463398 -0.31312989]
  [-0.64423576 -0.25712617 -0.61876458  1.3216292 ]
  [-0.32701328 -0.32273595 -0.54277751  8.36912112]
  [-0.45313909  0.          0.         -0.23648315]]

 [[-1.63012093 -0.90793815 -1.29221046 -0.97043559]
  [-0.88334991  0.55156047 -0.89804137  0.55700725]
  [-0.51932422  5.03128499 -0.49352645 -0.26799759]
  [-0.27059892 -0.83100218  0.         13.94199795]
  [-0.44939372 -2.02327457 -0.40360218 -0.53471198]]

 [[-1.70519201 -0.70194932 -0.50424698  0.09988223]
  [-0.46445879 -0.27700275 -0.3889018   2.54712652]
  [-0.26221687  0.67943891 -0.18832841  0.        ]
  [-0.03235958 18.78550633 -0.45005839  0.        ]
  [-0.23314557 -0.85491551 -0.35222717 23.86001379]]

 [[-0.97579535  1.94599921 -0.62089751 -0.57028136]
  [-0.42940388  7.36389331 -0.27293012  0.        ]
  [ 0.         12.38178581  0.          0.        ]
  [ 0.         19.20957634  0.          0.        ]
  [ 0.          0.          0.          0.        ]]]"
29,"[[[-4.22354387 -1.34342113 -3.69629606 -2.42061712]
  [-2.21737744  0.19757649 -2.35541218 -1.4427129 ]
  [-1.37065614  2.38429789 -1.79462126 -0.27754165]
  [-0.95900377 -0.31421956 -0.87283891  5.17931236]
  [-0.36493234  0.          0.          0.        ]]

 [[-3.17504428 -1.25437038 -1.93569218 -2.04817603]
  [-1.69801284 -0.51579352 -1.30463398 -0.31312989]
  [-0.64423576 -0.25712617 -0.61876458  1.3216292 ]
  [-0.32701328 -0.32273595 -0.54277751  9.04542788]
  [-0.45313909  0.          0.         -0.23648315]]

 [[-1.63012093 -0.90793815 -1.29221046 -0.97043559]
  [-0.88334991  0.55156047 -0.89804137  0.55700725]
  [-0.51932422  5.03128499 -0.49352645 -0.26799759]
  [-0.27059892 -0.83100218  0.         14.38534286]
  [-0.44939372 -2.02327457 -0.40360218 -0.53471198]]

 [[-1.70519201 -0.70194932 -0.50424698  0.09988223]
  [-0.46445879 -0.27700275 -0.3889018   2.54712652]
  [-0.26221687  0.67943891 -0.18832841  0.        ]
  [-0.03235958 19.11573131 -0.45005839  0.        ]
  [-0.23314557 -0.85491551 -0.35222717 24.03101172]]

 [[-0.97579535  1.94599921 -0.62089751 -0.57028136]
  [-0.42940388  7.36389331 -0.27293012  0.        ]
  [ 0.         12.38178581  0.          0.        ]
  [ 0.         19.20957634  0.          0.        ]
  [ 0.          0.          0.          0.        ]]]"
30,"[[[-4.22354387 -1.11031461 -3.69629606 -2.42061712]
  [-2.21737744  0.54184432 -2.35541218 -1.4427129 ]
  [-1.37065614  2.83324031 -1.79462126 -0.27754165]
  [-0.95900377 -0.31421956 -0.87283891  5.75126777]
  [-0.36493234  0.          0.          0.        ]]

 [[-3.17504428 -1.25437038 -1.93569218 -2.04817603]
  [-1.69801284 -0.51579352 -1.30463398 -0.31312989]
  [-0.64423576 -0.25712617 -0.61876458  1.3216292 ]
  [-0.32701328 -0.32273595 -0.54277751  9.66258232]
  [-0.45313909  0.          0.         -0.23648315]]

 [[-1.63012093 -0.90793815 -1.29221046 -0.97043559]
  [-0.88334991  0.55156047 -0.89804137  0.55700725]
  [-0.51932422  5.03128499 -0.49352645 -0.26799759]
  [-0.27059892 -0.83100218  0.         14.78967027]
  [-0.44939372 -2.02327457 -0.40360218 -0.53471198]]

 [[-1.70519201 -0.70194932 -0.50424698  0.09988223]
  [-0.46445879 -0.27700275 -0.3889018   2.54712652]
  [-0.26221687  0.67943891 -0.18832841  0.        ]
  [-0.03235958 19.40796491 -0.45005839  0.        ]
  [-0.23314557 -0.85491551 -0.35222717 24.17635996]]

 [[-0.97579535  1.94599921 -0.62089751 -0.57028136]
  [-0.42940388  7.36389331 -0.27293012  0.        ]
  [ 0.         12.38178581  0.          0.        ]
  [ 0.         19.20957634  0.          0.        ]
  [ 0.          0.          0.          0.        ]]]"
31,"[[[-4.22354387 -0.86212076 -3.69629606 -2.42061712]
  [-2.21737744  0.89406138 -2.35541218 -1.4427129 ]
  [-1.37065614  3.27992089 -1.79462126 -0.27754165]
  [-0.95900377 -0.31421956 -0.87283891  6.29625773]
  [-0.36493234  0.          0.          0.        ]]

 [[-3.17504428 -1.25437038 -1.93569218 -2.04817603]
  [-1.69801284 -0.51579352 -1.30463398 -0.31312989]
  [-0.64423576 -0.25712617 -0.61876458  1.3216292 ]
  [-0.32701328 -0.32273595 -0.54277751 10.22531902]
  [-0.45313909  0.          0.         -0.23648315]]

 [[-1.63012093 -0.90793815 -1.29221046 -0.97043559]
  [-0.88334991  0.55156047 -0.89804137  0.55700725]
  [-0.51932422  5.03128499 -0.49352645 -0.26799759]
  [-0.27059892 -0.83100218  0.         15.1574893 ]
  [-0.44939372 -2.02327457 -0.40360218 -0.53471198]]

 [[-1.70519201 -0.70194932 -0.50424698  0.09988223]
  [-0.46445879 -0.27700275 -0.3889018   2.54712652]
  [-0.26221687  0.67943891 -0.18832841  0.        ]
  [-0.03235958 19.66617447 -0.45005839  0.        ]
  [-0.23314557 -0.85491551 -0.35222717 24.29990597]]

 [[-0.97579535  1.94599921 -0.62089751 -0.57028136]
  [-0.42940388  7.36389331 -0.27293012  0.        ]
  [ 0.         12.38178581  0.          0.        ]
  [ 0.         19.20957634  0.          0.        ]
  [ 0.          0.          0.          0.        ]]]"
32,"[[[-4.22354387 -0.60149376 -3.69629606 -2.42061712]
  [-2.21737744  1.25097382 -2.35541218 -1.4427129 ]
  [-1.37065614  3.72043717 -1.79462126 -0.27754165]
  [-0.95900377 -0.31421956 -0.87283891  6.81294576]
  [-0.36493234  0.          0.          0.        ]]

 [[-3.17504428 -1.25437038 -1.93569218 -2.04817603]
  [-1.69801284 -0.51579352 -1.30463398 -0.31312989]
  [-0.64423576 -0.25712617 -0.61876458  1.3216292 ]
  [-0.32701328 -0.32273595 -0.54277751 10.73800484]
  [-0.45313909  0.          0.         -0.23648315]]

 [[-1.63012093 -0.90793815 -1.29221046 -0.97043559]
  [-0.88334991  0.55156047 -0.89804137  0.55700725]
  [-0.51932422  5.03128499 -0.49352645 -0.26799759]
  [-0.27059892 -0.83100218  0.         15.49131732]
  [-0.44939372 -2.02327457 -0.40360218 -0.53471198]]

 [[-1.70519201 -0.70194932 -0.50424698  0.09988223]
  [-0.46445879 -0.27700275 -0.3889018   2.54712652]
  [-0.26221687  0.67943891 -0.18832841  0.        ]
  [-0.03235958 19.89399195 -0.45005839  0.        ]
  [-0.23314557 -0.85491551 -0.35222717 24.40492007]]

 [[-0.97579535  1.94599921 -0.62089751 -0.57028136]
  [-0.42940388  7.36389331 -0.27293012  0.        ]
  [ 0.         12.38178581  0.          0.        ]
  [ 0.         19.20957634  0.          0.        ]
  [ 0.          0.          0.          0.        ]]]"
33,"[[[-4.22354387 -0.33100593 -3.69629606 -2.42061712]
  [-2.21737744  1.60960115 -2.35541218 -1.4427129 ]
  [-1.37065614  4.15158024 -1.79462126 -0.27754165]
  [-0.95900377 -0.31421956 -0.87283891  7.30063681]
  [-0.36493234  0.          0.          0.        ]]

 [[-3.17504428 -1.25437038 -1.93569218 -2.04817603]
  [-1.69801284 -0.51579352 -1.30463398 -0.31312989]
  [-0.64423576 -0.25712617 -0.61876458  1.3216292 ]
  [-0.32701328 -0.32273595 -0.54277751 11.20467654]
  [-0.45313909  0.          0.         -0.23648315]]

 [[-1.63012093 -0.90793815 -1.29221046 -0.97043559]
  [-0.88334991  0.55156047 -0.89804137  0.55700725]
  [-0.51932422  5.03128499 -0.49352645 -0.26799759]
  [-0.27059892 -0.83100218  0.         15.79363863]
  [-0.44939372 -2.02327457 -0.40360218 -0.53471198]]

 [[-1.70519201 -0.70194932 -0.50424698  0.09988223]
  [-0.46445879 -0.27700275 -0.3889018   2.54712652]
  [-0.26221687  0.67943891 -0.18832841  0.        ]
  [-0.03235958 20.09472526 -0.45005839  0.        ]
  [-0.23314557 -0.85491551 -0.35222717 24.49418206]]

 [[-0.97579535  1.94599921 -0.62089751 -0.57028136]
  [-0.42940388  7.36389331 -0.27293012  0.        ]
  [ 0.         12.38178581  0.          0.        ]
  [ 0.         19.20957634  0.          0.        ]
  [ 0.          0.          0.          0.        ]]]"
34,"[[[-4.22354387 -0.05311451 -3.69629606 -2.42061712]
  [-2.21737744  1.96725532 -2.35541218 -1.4427129 ]
  [-1.37065614  4.57076028 -1.79462126 -0.27754165]
  [-0.95900377 -0.31421956 -0.87283891  7.75915038]
  [-0.36493234  0.          0.          0.        ]]

 [[-3.17504428 -1.25437038 -1.93569218 -2.04817603]
  [-1.69801284 -0.51579352 -1.30463398 -0.31312989]
  [-0.64423576 -0.25712617 -0.61876458  1.3216292 ]
  [-0.32701328 -0.32273595 -0.54277751 11.62907154]
  [-0.45313909  0.          0.         -0.23648315]]

 [[-1.63012093 -0.90793815 -1.29221046 -0.97043559]
  [-0.88334991  0.55156047 -0.89804137  0.55700725]
  [-0.51932422  5.03128499 -0.49352645 -0.26799759]
  [-0.27059892 -0.83100218  0.         16.06687257]
  [-0.44939372 -2.02327457 -0.40360218 -0.53471198]]

 [[-1.70519201 -0.70194932 -0.50424698  0.09988223]
  [-0.46445879 -0.27700275 -0.3889018   2.54712652]
  [-0.26221687  0.67943891 -0.18832841  0.        ]
  [-0.03235958 20.27137376 -0.45005839  0.        ]
  [-0.23314557 -0.85491551 -0.35222717 24.57005475]]

 [[-0.97579535  1.94599921 -0.62089751 -0.57028136]
  [-0.42940388  7.36389331 -0.27293012  0.        ]
  [ 0.         12.38178581  0.          0.        ]
  [ 0.         19.20957634  0.          0.        ]
  [ 0.          0.          0.          0.        ]]]"
35,"[[[-4.22354387  0.22986403 -3.69629606 -2.42061712]
  [-2.21737744  2.32154842 -2.35541218 -1.4427129 ]
  [-1.37065614  4.9759353  -1.79462126 -0.27754165]
  [-0.95900377 -0.31421956 -0.87283891  8.1887143 ]
  [-0.36493234  0.          0.          0.        ]]

 [[-3.17504428 -1.25437038 -1.93569218 -2.04817603]
  [-1.69801284 -0.51579352 -1.30463398 -0.31312989]
  [-0.64423576 -0.25712617 -0.61876458  1.3216292 ]
  [-0.32701328 -0.32273595 -0.54277751 12.01465338]
  [-0.45313909  0.          0.         -0.23648315]]

 [[-1.63012093 -0.90793815 -1.29221046 -0.97043559]
  [-0.88334991  0.55156047 -0.89804137  0.55700725]
  [-0.51932422  5.03128499 -0.49352645 -0.26799759]
  [-0.27059892 -0.83100218  0.         16.31334983]
  [-0.44939372 -2.02327457 -0.40360218 -0.53471198]]

 [[-1.70519201 -0.70194932 -0.50424698  0.09988223]
  [-0.46445879 -0.27700275 -0.3889018   2.54712652]
  [-0.26221687  0.67943891 -0.18832841  0.        ]
  [-0.03235958 20.42664639 -0.45005839  0.        ]
  [-0.23314557 -0.85491551 -0.35222717 24.63454654]]

 [[-0.97579535  1.94599921 -0.62089751 -0.57028136]
  [-0.42940388  7.36389331 -0.27293012  0.        ]
  [ 0.         12.38178581  0.          0.        ]
  [ 0.         19.20957634  0.          0.        ]
  [ 0.          0.          0.          0.        ]]]"
36,"[[[-4.22354387  0.51577284 -3.69629606 -2.42061712]
  [-2.21737744  2.67039148 -2.35541218 -1.4427129 ]
  [-1.37065614  5.36554431 -1.79462126 -0.27754165]
  [-0.95900377 -0.31421956 -0.87283891  8.58987623]
  [-0.36493234  0.          0.          0.        ]]

 [[-3.17504428 -1.25437038 -1.93569218 -2.04817603]
  [-1.69801284 -0.51579352 -1.30463398 -0.31312989]
  [-0.64423576 -0.25712617 -0.61876458  1.3216292 ]
  [-0.32701328 -0.32273595 -0.54277751 12.36463307]
  [-0.45313909  0.          0.         -0.23648315]]

 [[-1.63012093 -0.90793815 -1.29221046 -0.97043559]
  [-0.88334991  0.55156047 -0.89804137  0.55700725]
  [-0.51932422  5.03128499 -0.49352645 -0.26799759]
  [-0.27059892 -0.83100218  0.         16.53529534]
  [-0.44939372 -2.02327457 -0.40360218 -0.53471198]]

 [[-1.70519201 -0.70194932 -0.50424698  0.09988223]
  [-0.46445879 -0.27700275 -0.3889018   2.54712652]
  [-0.26221687  0.67943891 -0.18832841  0.        ]
  [-0.03235958 20.56298133 -0.45005839  0.        ]
  [-0.23314557 -0.85491551 -0.35222717 24.68936456]]

 [[-0.97579535  1.94599921 -0.62089751 -0.57028136]
  [-0.42940388  7.36389331 -0.27293012  0.        ]
  [ 0.         12.38178581  0.          0.        ]
  [ 0.         19.20957634  0.          0.        ]
  [ 0.          0.          0.          0.        ]]]"
37,"[[[-4.22354387  0.80262756 -3.69629606 -2.42061712]
  [-2.21737744  3.01198658 -2.35541218 -1.4427129 ]
  [-1.37065614  5.73844506 -1.79462126 -0.27754165]
  [-0.95900377 -0.31421956 -0.87283891  8.9634298 ]
  [-0.36493234  0.          0.          0.        ]]

 [[-3.17504428 -1.25437038 -1.93569218 -2.04817603]
  [-1.69801284 -0.51579352 -1.30463398 -0.31312989]
  [-0.64423576 -0.25712617 -0.61876458  1.3216292 ]
  [-0.32701328 -0.32273595 -0.54277751 12.68198761]
  [-0.45313909  0.          0.         -0.23648315]]

 [[-1.63012093 -0.90793815 -1.29221046 -0.97043559]
  [-0.88334991  0.55156047 -0.89804137  0.55700725]
  [-0.51932422  5.03128499 -0.49352645 -0.26799759]
  [-0.27059892 -0.83100218  0.         16.73481672]
  [-0.44939372 -2.02327457 -0.40360218 -0.53471198]]

 [[-1.70519201 -0.70194932 -0.50424698  0.09988223]
  [-0.46445879 -0.27700275 -0.3889018   2.54712652]
  [-0.26221687  0.67943891 -0.18832841  0.        ]
  [-0.03235958 20.68256624 -0.45005839  0.        ]
  [-0.23314557 -0.85491551 -0.35222717 24.73595988]]

 [[-0.97579535  1.94599921 -0.62089751 -0.57028136]
  [-0.42940388  7.36389331 -0.27293012  0.        ]
  [ 0.         12.38178581  0.          0.        ]
  [ 0.         19.20957634  0.          0.        ]
  [ 0.          0.          0.          0.        ]]]"
38,"[[[-4.22354387  1.08862396 -3.69629606 -2.42061712]
  [-2.21737744  3.34481402 -2.35541218 -1.4427129 ]
  [-1.37065614  6.09385695 -1.79462126 -0.27754165]
  [-0.95900377 -0.31421956 -0.87283891  9.31035341]
  [-0.36493234  0.          0.          0.        ]]

 [[-3.17504428 -1.25437038 -1.93569218 -2.04817603]
  [-1.69801284 -0.51579352 -1.30463398 -0.31312989]
  [-0.64423576 -0.25712617 -0.61876458  1.3216292 ]
  [-0.32701328 -0.32273595 -0.54277751 12.96947595]
  [-0.45313909  0.          0.         -0.23648315]]

 [[-1.63012093 -0.90793815 -1.29221046 -0.97043559]
  [-0.88334991  0.55156047 -0.89804137  0.55700725]
  [-0.51932422  5.03128499 -0.49352645 -0.26799759]
  [-0.27059892 -0.83100218  0.         16.91389722]
  [-0.44939372 -2.02327457 -0.40360218 -0.53471198]]

 [[-1.70519201 -0.70194932 -0.50424698  0.09988223]
  [-0.46445879 -0.27700275 -0.3889018   2.54712652]
  [-0.26221687  0.67943891 -0.18832841  0.        ]
  [-0.03235958 20.78735859 -0.45005839  0.        ]
  [-0.23314557 -0.85491551 -0.35222717 24.77556589]]

 [[-0.97579535  1.94599921 -0.62089751 -0.57028136]
  [-0.42940388  7.36389331 -0.27293012  0.        ]
  [ 0.         12.38178581  0.          0.        ]
  [ 0.         19.20957634  0.          0.        ]
  [ 0.          0.          0.          0.        ]]]"
39,"[[[-4.22354387  1.37214113 -3.69629606 -2.42061712]
  [-2.21737744  3.66761597 -2.35541218 -1.4427129 ]
  [-1.37065614  6.43130886 -1.79462126 -0.27754165]
  [-0.95900377 -0.31421956 -0.87283891  9.6317595 ]
  [-0.36493234  0.          0.          0.        ]]

 [[-3.17504428 -1.25437038 -1.93569218 -2.04817603]
  [-1.69801284 -0.51579352 -1.30463398 -0.31312989]
  [-0.64423576 -0.25712617 -0.61876458  1.3216292 ]
  [-0.32701328 -0.32273595 -0.54277751 13.2296534 ]
  [-0.45313909  0.          0.         -0.23648315]]

 [[-1.63012093 -0.90793815 -1.29221046 -0.97043559]
  [-0.88334991  0.55156047 -0.89804137  0.55700725]
  [-0.51932422  5.03128499 -0.49352645 -0.26799759]
  [-0.27059892 -0.83100218  0.         17.07439215]
  [-0.44939372 -2.02327457 -0.40360218 -0.53471198]]

 [[-1.70519201 -0.70194932 -0.50424698  0.09988223]
  [-0.46445879 -0.27700275 -0.3889018   2.54712652]
  [-0.26221687  0.67943891 -0.18832841  0.        ]
  [-0.03235958 20.8791055  -0.45005839  0.        ]
  [-0.23314557 -0.85491551 -0.35222717 24.80923101]]

 [[-0.97579535  1.94599921 -0.62089751 -0.57028136]
  [-0.42940388  7.36389331 -0.27293012  0.        ]
  [ 0.         12.38178581  0.          0.        ]
  [ 0.         19.20957634  0.          0.        ]
  [ 0.          0.          0.          0.        ]]]"
40,"[[[-4.22354387  1.6517409  -3.69629606 -2.42061712]
  [-2.21737744  3.97937771 -2.35541218 -1.4427129 ]
  [-1.37065614  6.75059206 -1.79462126 -0.27754165]
  [-0.95900377 -0.31421956 -0.87283891  9.92885283]
  [-0.36493234  0.          0.          0.        ]]

 [[-3.17504428 -1.25437038 -1.93569218 -2.04817603]
  [-1.69801284 -0.51579352 -1.30463398 -0.31312989]
  [-0.64423576 -0.25712617 -0.61876458  1.3216292 ]
  [-0.32701328 -0.32273595 -0.54277751 13.46488462]
  [-0.45313909  0.          0.         -0.23648315]]

 [[-1.63012093 -0.90793815 -1.29221046 -0.97043559]
  [-0.88334991  0.55156047 -0.89804137  0.55700725]
  [-0.51932422  5.03128499 -0.49352645 -0.26799759]
  [-0.27059892 -0.83100218  0.         17.21802834]
  [-0.44939372 -2.02327457 -0.40360218 -0.53471198]]

 [[-1.70519201 -0.70194932 -0.50424698  0.09988223]
  [-0.46445879 -0.27700275 -0.3889018   2.54712652]
  [-0.26221687  0.67943891 -0.18832841  0.        ]
  [-0.03235958 20.95936277 -0.45005839  0.        ]
  [-0.23314557 -0.85491551 -0.35222717 24.83784636]]

 [[-0.97579535  1.94599921 -0.62089751 -0.57028136]
  [-0.42940388  7.36389331 -0.27293012  0.        ]
  [ 0.         12.38178581  0.          0.        ]
  [ 0.         19.20957634  0.          0.        ]
  [ 0.          0.          0.          0.        ]]]"
41,"[[[-4.22354387  1.92616422 -3.69629606 -2.42061712]
  [-2.21737744  4.27930762 -2.35541218 -1.4427129 ]
  [-1.37065614  7.05171792 -1.79462126 -0.27754165]
  [-0.95900377 -0.31421956 -0.87283891 10.20289625]
  [-0.36493234  0.          0.          0.        ]]

 [[-3.17504428 -1.25437038 -1.93569218 -2.04817603]
  [-1.69801284 -0.51579352 -1.30463398 -0.31312989]
  [-0.64423576 -0.25712617 -0.61876458  1.3216292 ]
  [-0.32701328 -0.32273595 -0.54277751 13.67735554]
  [-0.45313909  0.          0.         -0.23648315]]

 [[-1.63012093 -0.90793815 -1.29221046 -0.97043559]
  [-0.88334991  0.55156047 -0.89804137  0.55700725]
  [-0.51932422  5.03128499 -0.49352645 -0.26799759]
  [-0.27059892 -0.83100218  0.         17.34640566]
  [-0.44939372 -2.02327457 -0.40360218 -0.53471198]]

 [[-1.70519201 -0.70194932 -0.50424698  0.09988223]
  [-0.46445879 -0.27700275 -0.3889018   2.54712652]
  [-0.26221687  0.67943891 -0.18832841  0.        ]
  [-0.03235958 21.02951298 -0.45005839  0.        ]
  [-0.23314557 -0.85491551 -0.35222717 24.8621694 ]]

 [[-0.97579535  1.94599921 -0.62089751 -0.57028136]
  [-0.42940388  7.36389331 -0.27293012  0.        ]
  [ 0.         12.38178581  0.          0.        ]
  [ 0.         19.20957634  0.          0.        ]
  [ 0.          0.          0.          0.        ]]]"
42,"[[[-4.22354387  2.19432508 -3.69629606 -2.42061712]
  [-2.21737744  4.56681642 -2.35541218 -1.4427129 ]
  [-1.37065614  7.33488021 -1.79462126 -0.27754165]
  [-0.95900377 -0.31421956 -0.87283891 10.45518288]
  [-0.36493234  0.          0.          0.        ]]

 [[-3.17504428 -1.25437038 -1.93569218 -2.04817603]
  [-1.69801284 -0.51579352 -1.30463398 -0.31312989]
  [-0.64423576 -0.25712617 -0.61876458  1.3216292 ]
  [-0.32701328 -0.32273595 -0.54277751 13.86908458]
  [-0.45313909  0.          0.         -0.23648315]]

 [[-1.63012093 -0.90793815 -1.29221046 -0.97043559]
  [-0.88334991  0.55156047 -0.89804137  0.55700725]
  [-0.51932422  5.03128499 -0.49352645 -0.26799759]
  [-0.27059892 -0.83100218  0.         17.46100033]
  [-0.44939372 -2.02327457 -0.40360218 -0.53471198]]

 [[-1.70519201 -0.70194932 -0.50424698  0.09988223]
  [-0.46445879 -0.27700275 -0.3889018   2.54712652]
  [-0.26221687  0.67943891 -0.18832841  0.        ]
  [-0.03235958 21.09078247 -0.45005839  0.        ]
  [-0.23314557 -0.85491551 -0.35222717 24.88284399]]

 [[-0.97579535  1.94599921 -0.62089751 -0.57028136]
  [-0.42940388  7.36389331 -0.27293012  0.        ]
  [ 0.         12.38178581  0.          0.        ]
  [ 0.         19.20957634  0.          0.        ]
  [ 0.          0.          0.          0.        ]]]"
43,"[[[-4.22354387  2.45530255 -3.69629606 -2.42061712]
  [-2.21737744  4.84149647 -2.35541218 -1.4427129 ]
  [-1.37065614  7.60042173 -1.79462126 -0.27754165]
  [-0.95900377 -0.31421956 -0.87283891 10.68701368]
  [-0.36493234  0.          0.          0.        ]]

 [[-3.17504428 -1.25437038 -1.93569218 -2.04817603]
  [-1.69801284 -0.51579352 -1.30463398 -0.31312989]
  [-0.64423576 -0.25712617 -0.61876458  1.3216292 ]
  [-0.32701328 -0.32273595 -0.54277751 14.04193306]
  [-0.45313909  0.          0.         -0.23648315]]

 [[-1.63012093 -0.90793815 -1.29221046 -0.97043559]
  [-0.88334991  0.55156047 -0.89804137  0.55700725]
  [-0.51932422  5.03128499 -0.49352645 -0.26799759]
  [-0.27059892 -0.83100218  0.         17.56316949]
  [-0.44939372 -2.02327457 -0.40360218 -0.53471198]]

 [[-1.70519201 -0.70194932 -0.50424698  0.09988223]
  [-0.46445879 -0.27700275 -0.3889018   2.54712652]
  [-0.26221687  0.67943891 -0.18832841  0.        ]
  [-0.03235958 21.14425707 -0.45005839  0.        ]
  [-0.23314557 -0.85491551 -0.35222717 24.90041739]]

 [[-0.97579535  1.94599921 -0.62089751 -0.57028136]
  [-0.42940388  7.36389331 -0.27293012  0.        ]
  [ 0.         12.38178581  0.          0.        ]
  [ 0.         19.20957634  0.          0.        ]
  [ 0.          0.          0.          0.        ]]]"
44,"[[[-4.22354387  2.70833141 -3.69629606 -2.42061712]
  [-2.21737744  5.10310139 -2.35541218 -1.4427129 ]
  [-1.37065614  7.84880495 -1.79462126 -0.27754165]
  [-0.95900377 -0.31421956 -0.87283891 10.89967954]
  [-0.36493234  0.          0.          0.        ]]

 [[-3.17504428 -1.25437038 -1.93569218 -2.04817603]
  [-1.69801284 -0.51579352 -1.30463398 -0.31312989]
  [-0.64423576 -0.25712617 -0.61876458  1.3216292 ]
  [-0.32701328 -0.32273595 -0.54277751 14.19761518]
  [-0.45313909  0.          0.         -0.23648315]]

 [[-1.63012093 -0.90793815 -1.29221046 -0.97043559]
  [-0.88334991  0.55156047 -0.89804137  0.55700725]
  [-0.51932422  5.03128499 -0.49352645 -0.26799759]
  [-0.27059892 -0.83100218  0.         17.6541566 ]
  [-0.44939372 -2.02327457 -0.40360218 -0.53471198]]

 [[-1.70519201 -0.70194932 -0.50424698  0.09988223]
  [-0.46445879 -0.27700275 -0.3889018   2.54712652]
  [-0.26221687  0.67943891 -0.18832841  0.        ]
  [-0.03235958 21.19089668 -0.45005839  0.        ]
  [-0.23314557 -0.85491551 -0.35222717 24.91535479]]

 [[-0.97579535  1.94599921 -0.62089751 -0.57028136]
  [-0.42940388  7.36389331 -0.27293012  0.        ]
  [ 0.         12.38178581  0.          0.        ]
  [ 0.         19.20957634  0.          0.        ]
  [ 0.          0.          0.          0.        ]]]"
45,"[[[-4.22354387  2.95279168 -3.69629606 -2.42061712]
  [-2.21737744  5.35152649 -2.35541218 -1.4427129 ]
  [-1.37065614  8.08058639 -1.79462126 -0.27754165]
  [-0.95900377 -0.31421956 -0.87283891 11.09444719]
  [-0.36493234  0.          0.          0.        ]]

 [[-3.17504428 -1.25437038 -1.93569218 -2.04817603]
  [-1.69801284 -0.51579352 -1.30463398 -0.31312989]
  [-0.64423576 -0.25712617 -0.61876458  1.3216292 ]
  [-0.32701328 -0.32273595 -0.54277751 14.33770746]
  [-0.45313909  0.          0.         -0.23648315]]

 [[-1.63012093 -0.90793815 -1.29221046 -0.97043559]
  [-0.88334991  0.55156047 -0.89804137  0.55700725]
  [-0.51932422  5.03128499 -0.49352645 -0.26799759]
  [-0.27059892 -0.83100218  0.         17.73509753]
  [-0.44939372 -2.02327457 -0.40360218 -0.53471198]]

 [[-1.70519201 -0.70194932 -0.50424698  0.09988223]
  [-0.46445879 -0.27700275 -0.3889018   2.54712652]
  [-0.26221687  0.67943891 -0.18832841  0.        ]
  [-0.03235958 21.23154863 -0.45005839  0.        ]
  [-0.23314557 -0.85491551 -0.35222717 24.92805157]]

 [[-0.97579535  1.94599921 -0.62089751 -0.57028136]
  [-0.42940388  7.36389331 -0.27293012  0.        ]
  [ 0.         12.38178581  0.          0.        ]
  [ 0.         19.20957634  0.          0.        ]
  [ 0.          0.          0.          0.        ]]]"
46,"[[[-4.22354387  3.18819769 -3.69629606 -2.42061712]
  [-2.21737744  5.58679023 -2.35541218 -1.4427129 ]
  [-1.37065614  8.29639428 -1.79462126 -0.27754165]
  [-0.95900377 -0.31421956 -0.87283891 11.27254826]
  [-0.36493234  0.          0.          0.        ]]

 [[-3.17504428 -1.25437038 -1.93569218 -2.04817603]
  [-1.69801284 -0.51579352 -1.30463398 -0.31312989]
  [-0.64423576 -0.25712617 -0.61876458  1.3216292 ]
  [-0.32701328 -0.32273595 -0.54277751 14.46365777]
  [-0.45313909  0.          0.         -0.23648315]]

 [[-1.63012093 -0.90793815 -1.29221046 -0.97043559]
  [-0.88334991  0.55156047 -0.89804137  0.55700725]
  [-0.51932422  5.03128499 -0.49352645 -0.26799759]
  [-0.27059892 -0.83100218  0.         17.807027  ]
  [-0.44939372 -2.02327457 -0.40360218 -0.53471198]]

 [[-1.70519201 -0.70194932 -0.50424698  0.09988223]
  [-0.46445879 -0.27700275 -0.3889018   2.54712652]
  [-0.26221687  0.67943891 -0.18832841  0.        ]
  [-0.03235958 21.26695982 -0.45005839  0.        ]
  [-0.23314557 -0.85491551 -0.35222717 24.93884383]]

 [[-0.97579535  1.94599921 -0.62089751 -0.57028136]
  [-0.42940388  7.36389331 -0.27293012  0.        ]
  [ 0.         12.38178581  0.          0.        ]
  [ 0.         19.20957634  0.          0.        ]
  [ 0.          0.          0.          0.        ]]]"
47,"[[[-4.22354387  3.41418664 -3.69629606 -2.42061712]
  [-2.21737744  5.80901674 -2.35541218 -1.4427129 ]
  [-1.37065614  8.49690942 -1.79462126 -0.27754165]
  [-0.95900377 -0.31421956 -0.87283891 11.43517108]
  [-0.36493234  0.          0.          0.        ]]

 [[-3.17504428 -1.25437038 -1.93569218 -2.04817603]
  [-1.69801284 -0.51579352 -1.30463398 -0.31312989]
  [-0.64423576 -0.25712617 -0.61876458  1.3216292 ]
  [-0.32701328 -0.32273595 -0.54277751 14.5767939 ]
  [-0.45313909  0.          0.         -0.23648315]]

 [[-1.63012093 -0.90793815 -1.29221046 -0.97043559]
  [-0.88334991  0.55156047 -0.89804137  0.55700725]
  [-0.51932422  5.03128499 -0.49352645 -0.26799759]
  [-0.27059892 -0.83100218  0.         17.87088512]
  [-0.44939372 -2.02327457 -0.40360218 -0.53471198]]

 [[-1.70519201 -0.70194932 -0.50424698  0.09988223]
  [-0.46445879 -0.27700275 -0.3889018   2.54712652]
  [-0.26221687  0.67943891 -0.18832841  0.        ]
  [-0.03235958 21.2977878  -0.45005839  0.        ]
  [-0.23314557 -0.85491551 -0.35222717 24.94801726]]

 [[-0.97579535  1.94599921 -0.62089751 -0.57028136]
  [-0.42940388  7.36389331 -0.27293012  0.        ]
  [ 0.         12.38178581  0.          0.        ]
  [ 0.         19.20957634  0.          0.        ]
  [ 0.          0.          0.          0.        ]]]"
48,"[[[-4.22354387  3.63050723 -3.69629606 -2.42061712]
  [-2.21737744  6.01841968 -2.35541218 -1.4427129 ]
  [-1.37065614  8.68284872 -1.79462126 -0.27754165]
  [-0.95900377 -0.31421956 -0.87283891 11.58345466]
  [-0.36493234  0.          0.          0.        ]]

 [[-3.17504428 -1.25437038 -1.93569218 -2.04817603]
  [-1.69801284 -0.51579352 -1.30463398 -0.31312989]
  [-0.64423576 -0.25712617 -0.61876458  1.3216292 ]
  [-0.32701328 -0.32273595 -0.54277751 14.67833183]
  [-0.45313909  0.          0.         -0.23648315]]

 [[-1.63012093 -0.90793815 -1.29221046 -0.97043559]
  [-0.88334991  0.55156047 -0.89804137  0.55700725]
  [-0.51932422  5.03128499 -0.49352645 -0.26799759]
  [-0.27059892 -0.83100218  0.         17.92752405]
  [-0.44939372 -2.02327457 -0.40360218 -0.53471198]]

 [[-1.70519201 -0.70194932 -0.50424698  0.09988223]
  [-0.46445879 -0.27700275 -0.3889018   2.54712652]
  [-0.26221687  0.67943891 -0.18832841  0.        ]
  [-0.03235958 21.3246108  -0.45005839  0.        ]
  [-0.23314557 -0.85491551 -0.35222717 24.95581467]]

 [[-0.97579535  1.94599921 -0.62089751 -0.57028136]
  [-0.42940388  7.36389331 -0.27293012  0.        ]
  [ 0.         12.38178581  0.          0.        ]
  [ 0.         19.20957634  0.          0.        ]
  [ 0.          0.          0.          0.        ]]]"
49,"[[[-4.22354387  3.83700829 -3.69629606 -2.42061712]
  [-2.21737744  6.21528744 -2.35541218 -1.4427129 ]
  [-1.37065614  8.85495123 -1.79462126 -0.27754165]
  [-0.95900377 -0.31421956 -0.87283891 11.71848452]
  [-0.36493234  0.          0.          0.        ]]

 [[-3.17504428 -1.25437038 -1.93569218 -2.04817603]
  [-1.69801284 -0.51579352 -1.30463398 -0.31312989]
  [-0.64423576 -0.25712617 -0.61876458  1.3216292 ]
  [-0.32701328 -0.32273595 -0.54277751 14.76938352]
  [-0.45313909  0.          0.         -0.23648315]]

 [[-1.63012093 -0.90793815 -1.29221046 -0.97043559]
  [-0.88334991  0.55156047 -0.89804137  0.55700725]
  [-0.51932422  5.03128499 -0.49352645 -0.26799759]
  [-0.27059892 -0.83100218  0.         17.97771454]
  [-0.44939372 -2.02327457 -0.40360218 -0.53471198]]

 [[-1.70519201 -0.70194932 -0.50424698  0.09988223]
  [-0.46445879 -0.27700275 -0.3889018   2.54712652]
  [-0.26221687  0.67943891 -0.18832841  0.        ]
  [-0.03235958 21.34793667 -0.45005839  0.        ]
  [-0.23314557 -0.85491551 -0.35222717 24.96244247]]

 [[-0.97579535  1.94599921 -0.62089751 -0.57028136]
  [-0.42940388  7.36389331 -0.27293012  0.        ]
  [ 0.         12.38178581  0.          0.        ]
  [ 0.         19.20957634  0.          0.        ]
  [ 0.          0.          0.          0.        ]]]"
50,"[[[-4.22354387  4.03362782 -3.69629606 -2.42061712]
  [-2.21737744  6.39996958 -2.35541218 -1.4427129 ]
  [-1.37065614  9.01396643 -1.79462126 -0.27754165]
  [-0.95900377 -0.31421956 -0.87283891 11.84129003]
  [-0.36493234  0.          0.          0.        ]]

 [[-3.17504428 -1.25437038 -1.93569218 -2.04817603]
  [-1.69801284 -0.51579352 -1.30463398 -0.31312989]
  [-0.64423576 -0.25712617 -0.61876458  1.3216292 ]
  [-0.32701328 -0.32273595 -0.54277751 14.85096444]
  [-0.45313909  0.          0.         -0.23648315]]

 [[-1.63012093 -0.90793815 -1.29221046 -0.97043559]
  [-0.88334991  0.55156047 -0.89804137  0.55700725]
  [-0.51932422  5.03128499 -0.49352645 -0.26799759]
  [-0.27059892 -0.83100218  0.         18.02215228]
  [-0.44939372 -2.02327457 -0.40360218 -0.53471198]]

 [[-1.70519201 -0.70194932 -0.50424698  0.09988223]
  [-0.46445879 -0.27700275 -0.3889018   2.54712652]
  [-0.26221687  0.67943891 -0.18832841  0.        ]
  [-0.03235958 21.36821103 -0.45005839  0.        ]
  [-0.23314557 -0.85491551 -0.35222717 24.9680761 ]]

 [[-0.97579535  1.94599921 -0.62089751 -0.57028136]
  [-0.42940388  7.36389331 -0.27293012  0.        ]
  [ 0.         12.38178581  0.          0.        ]
  [ 0.         19.20957634  0.          0.        ]
  [ 0.          0.          0.          0.        ]]]"
51,"[[[-4.22354387  4.22038235 -3.69629606 -2.42061712]
  [-2.21737744  6.57286472 -2.35541218 -1.4427129 ]
  [-1.37065614  9.16064446 -1.79462126 -0.27754165]
  [-0.95900377 -0.31421956 -0.87283891 11.952843  ]
  [-0.36493234  0.          0.          0.        ]]

 [[-3.17504428 -1.25437038 -1.93569218 -2.04817603]
  [-1.69801284 -0.51579352 -1.30463398 -0.31312989]
  [-0.64423576 -0.25712617 -0.61876458  1.3216292 ]
  [-0.32701328 -0.32273595 -0.54277751 14.9240006 ]
  [-0.45313909  0.          0.         -0.23648315]]

 [[-1.63012093 -0.90793815 -1.29221046 -0.97043559]
  [-0.88334991  0.55156047 -0.89804137  0.55700725]
  [-0.51932422  5.03128499 -0.49352645 -0.26799759]
  [-0.27059892 -0.83100218  0.         18.06146399]
  [-0.44939372 -2.02327457 -0.40360218 -0.53471198]]

 [[-1.70519201 -0.70194932 -0.50424698  0.09988223]
  [-0.46445879 -0.27700275 -0.3889018   2.54712652]
  [-0.26221687  0.67943891 -0.18832841  0.        ]
  [-0.03235958 21.38582452 -0.45005839  0.        ]
  [-0.23314557 -0.85491551 -0.35222717 24.97286468]]

 [[-0.97579535  1.94599921 -0.62089751 -0.57028136]
  [-0.42940388  7.36389331 -0.27293012  0.        ]
  [ 0.         12.38178581  0.          0.        ]
  [ 0.         19.20957634  0.          0.        ]
  [ 0.          0.          0.          0.        ]]]"
52,"[[[-4.22354387  4.39735694 -3.69629606 -2.42061712]
  [-2.21737744  6.73440962 -2.35541218 -1.4427129 ]
  [-1.37065614  9.29572801 -1.79462126 -0.27754165]
  [-0.95900377 -0.31421956 -0.87283891 12.05405726]
  [-0.36493234  0.          0.          0.        ]]

 [[-3.17504428 -1.25437038 -1.93569218 -2.04817603]
  [-1.69801284 -0.51579352 -1.30463398 -0.31312989]
  [-0.64423576 -0.25712617 -0.61876458  1.3216292 ]
  [-0.32701328 -0.32273595 -0.54277751 14.98933535]
  [-0.45313909  0.          0.         -0.23648315]]

 [[-1.63012093 -0.90793815 -1.29221046 -0.97043559]
  [-0.88334991  0.55156047 -0.89804137  0.55700725]
  [-0.51932422  5.03128499 -0.49352645 -0.26799759]
  [-0.27059892 -0.83100218  0.         18.09621331]
  [-0.44939372 -2.02327457 -0.40360218 -0.53471198]]

 [[-1.70519201 -0.70194932 -0.50424698  0.09988223]
  [-0.46445879 -0.27700275 -0.3889018   2.54712652]
  [-0.26221687  0.67943891 -0.18832841  0.        ]
  [-0.03235958 21.4011192  -0.45005839  0.        ]
  [-0.23314557 -0.85491551 -0.35222717 24.97693498]]

 [[-0.97579535  1.94599921 -0.62089751 -0.57028136]
  [-0.42940388  7.36389331 -0.27293012  0.        ]
  [ 0.         12.38178581  0.          0.        ]
  [ 0.         19.20957634  0.          0.        ]
  [ 0.          0.          0.          0.        ]]]"
53,"[[[-4.22354387  4.56469564 -3.69629606 -2.42061712]
  [-2.21737744  6.88506949 -2.35541218 -1.4427129 ]
  [-1.37065614  9.41994586 -1.79462126 -0.27754165]
  [-0.95900377 -0.31421956 -0.87283891 12.14578909]
  [-0.36493234  0.          0.          0.        ]]

 [[-3.17504428 -1.25437038 -1.93569218 -2.04817603]
  [-1.69801284 -0.51579352 -1.30463398 -0.31312989]
  [-0.64423576 -0.25712617 -0.61876458  1.3216292 ]
  [-0.32701328 -0.32273595 -0.54277751 15.04773567]
  [-0.45313909  0.          0.         -0.23648315]]

 [[-1.63012093 -0.90793815 -1.29221046 -0.97043559]
  [-0.88334991  0.55156047 -0.89804137  0.55700725]
  [-0.51932422  5.03128499 -0.49352645 -0.26799759]
  [-0.27059892 -0.83100218  0.         18.12690626]
  [-0.44939372 -2.02327457 -0.40360218 -0.53471198]]

 [[-1.70519201 -0.70194932 -0.50424698  0.09988223]
  [-0.46445879 -0.27700275 -0.3889018   2.54712652]
  [-0.26221687  0.67943891 -0.18832841  0.        ]
  [-0.03235958 21.41439443 -0.45005839  0.        ]
  [-0.23314557 -0.85491551 -0.35222717 24.98039473]]

 [[-0.97579535  1.94599921 -0.62089751 -0.57028136]
  [-0.42940388  7.36389331 -0.27293012  0.        ]
  [ 0.         12.38178581  0.          0.        ]
  [ 0.         19.20957634  0.          0.        ]
  [ 0.          0.          0.          0.        ]]]"
54,"[[[-4.22354387  4.7225927  -3.69629606 -2.42061712]
  [-2.21737744  7.02532954 -2.35541218 -1.4427129 ]
  [-1.37065614  9.53400761 -1.79462126 -0.27754165]
  [-0.95900377 -0.31421956 -0.87283891 12.2288382 ]
  [-0.36493234  0.          0.          0.        ]]

 [[-3.17504428 -1.25437038 -1.93569218 -2.04817603]
  [-1.69801284 -0.51579352 -1.30463398 -0.31312989]
  [-0.64423576 -0.25712617 -0.61876458  1.3216292 ]
  [-0.32701328 -0.32273595 -0.54277751 15.09989824]
  [-0.45313909  0.          0.         -0.23648315]]

 [[-1.63012093 -0.90793815 -1.29221046 -0.97043559]
  [-0.88334991  0.55156047 -0.89804137  0.55700725]
  [-0.51932422  5.03128499 -0.49352645 -0.26799759]
  [-0.27059892 -0.83100218  0.         18.15399644]
  [-0.44939372 -2.02327457 -0.40360218 -0.53471198]]

 [[-1.70519201 -0.70194932 -0.50424698  0.09988223]
  [-0.46445879 -0.27700275 -0.3889018   2.54712652]
  [-0.26221687  0.67943891 -0.18832841  0.        ]
  [-0.03235958 21.42591191 -0.45005839  0.        ]
  [-0.23314557 -0.85491551 -0.35222717 24.98333552]]

 [[-0.97579535  1.94599921 -0.62089751 -0.57028136]
  [-0.42940388  7.36389331 -0.27293012  0.        ]
  [ 0.         12.38178581  0.          0.        ]
  [ 0.         19.20957634  0.          0.        ]
  [ 0.          0.          0.          0.        ]]]"
55,"[[[-4.22354387  4.87128438 -3.69629606 -2.42061712]
  [-2.21737744  7.15568754 -2.35541218 -1.4427129 ]
  [-1.37065614  9.63859962 -1.79462126 -0.27754165]
  [-0.95900377 -0.31421956 -0.87283891 12.3039493 ]
  [-0.36493234  0.          0.          0.        ]]

 [[-3.17504428 -1.25437038 -1.93569218 -2.04817603]
  [-1.69801284 -0.51579352 -1.30463398 -0.31312989]
  [-0.64423576 -0.25712617 -0.61876458  1.3216292 ]
  [-0.32701328 -0.32273595 -0.54277751 15.14645506]
  [-0.45313909  0.          0.         -0.23648315]]

 [[-1.63012093 -0.90793815 -1.29221046 -0.97043559]
  [-0.88334991  0.55156047 -0.89804137  0.55700725]
  [-0.51932422  5.03128499 -0.49352645 -0.26799759]
  [-0.27059892 -0.83100218  0.         18.17788984]
  [-0.44939372 -2.02327457 -0.40360218 -0.53471198]]

 [[-1.70519201 -0.70194932 -0.50424698  0.09988223]
  [-0.46445879 -0.27700275 -0.3889018   2.54712652]
  [-0.26221687  0.67943891 -0.18832841  0.        ]
  [-0.03235958 21.43590027 -0.45005839  0.        ]
  [-0.23314557 -0.85491551 -0.35222717 24.9858352 ]]

 [[-0.97579535  1.94599921 -0.62089751 -0.57028136]
  [-0.42940388  7.36389331 -0.27293012  0.        ]
  [ 0.         12.38178581  0.          0.        ]
  [ 0.         19.20957634  0.          0.        ]
  [ 0.          0.          0.          0.        ]]]"
56,"[[[-4.22354387  5.01104148 -3.69629606 -2.42061712]
  [-2.21737744  7.2766474  -2.35541218 -1.4427129 ]
  [-1.37065614  9.73438194 -1.79462126 -0.27754165]
  [-0.95900377 -0.31421956 -0.87283891 12.37181399]
  [-0.36493234  0.          0.          0.        ]]

 [[-3.17504428 -1.25437038 -1.93569218 -2.04817603]
  [-1.69801284 -0.51579352 -1.30463398 -0.31312989]
  [-0.64423576 -0.25712617 -0.61876458  1.3216292 ]
  [-0.32701328 -0.32273595 -0.54277751 15.18797872]
  [-0.45313909  0.          0.         -0.23648315]]

 [[-1.63012093 -0.90793815 -1.29221046 -0.97043559]
  [-0.88334991  0.55156047 -0.89804137  0.55700725]
  [-0.51932422  5.03128499 -0.49352645 -0.26799759]
  [-0.27059892 -0.83100218  0.         18.19894938]
  [-0.44939372 -2.02327457 -0.40360218 -0.53471198]]

 [[-1.70519201 -0.70194932 -0.50424698  0.09988223]
  [-0.46445879 -0.27700275 -0.3889018   2.54712652]
  [-0.26221687  0.67943891 -0.18832841  0.        ]
  [-0.03235958 21.44455911 -0.45005839  0.        ]
  [-0.23314557 -0.85491551 -0.35222717 24.98795992]]

 [[-0.97579535  1.94599921 -0.62089751 -0.57028136]
  [-0.42940388  7.36389331 -0.27293012  0.        ]
  [ 0.         12.38178581  0.          0.        ]
  [ 0.         19.20957634  0.          0.        ]
  [ 0.          0.          0.          0.        ]]]"
57,"[[[-4.22354387  5.1421625  -3.69629606 -2.42061712]
  [-2.21737744  7.38871371 -2.35541218 -1.4427129 ]
  [-1.37065614  9.82198606 -1.79462126 -0.27754165]
  [-0.95900377 -0.31421956 -0.87283891 12.43307292]
  [-0.36493234  0.          0.          0.        ]]

 [[-3.17504428 -1.25437038 -1.93569218 -2.04817603]
  [-1.69801284 -0.51579352 -1.30463398 -0.31312989]
  [-0.64423576 -0.25712617 -0.61876458  1.3216292 ]
  [-0.32701328 -0.32273595 -0.54277751 15.2249874 ]
  [-0.45313909  0.          0.         -0.23648315]]

 [[-1.63012093 -0.90793815 -1.29221046 -0.97043559]
  [-0.88334991  0.55156047 -0.89804137  0.55700725]
  [-0.51932422  5.03128499 -0.49352645 -0.26799759]
  [-0.27059892 -0.83100218  0.         18.21749899]
  [-0.44939372 -2.02327457 -0.40360218 -0.53471198]]

 [[-1.70519201 -0.70194932 -0.50424698  0.09988223]
  [-0.46445879 -0.27700275 -0.3889018   2.54712652]
  [-0.26221687  0.67943891 -0.18832841  0.        ]
  [-0.03235958 21.45206254 -0.45005839  0.        ]
  [-0.23314557 -0.85491551 -0.35222717 24.98976593]]

 [[-0.97579535  1.94599921 -0.62089751 -0.57028136]
  [-0.42940388  7.36389331 -0.27293012  0.        ]
  [ 0.         12.38178581  0.          0.        ]
  [ 0.         19.20957634  0.          0.        ]
  [ 0.          0.          0.          0.        ]]]"
58,"[[[-4.22354387  5.26496748 -3.69629606 -2.42061712]
  [-2.21737744  7.49238707 -2.35541218 -1.4427129 ]
  [-1.37065614  9.90201338 -1.79462126 -0.27754165]
  [-0.95900377 -0.31421956 -0.87283891 12.48831822]
  [-0.36493234  0.          0.          0.        ]]

 [[-3.17504428 -1.25437038 -1.93569218 -2.04817603]
  [-1.69801284 -0.51579352 -1.30463398 -0.31312989]
  [-0.64423576 -0.25712617 -0.61876458  1.3216292 ]
  [-0.32701328 -0.32273595 -0.54277751 15.25794949]
  [-0.45313909  0.          0.         -0.23648315]]

 [[-1.63012093 -0.90793815 -1.29221046 -0.97043559]
  [-0.88334991  0.55156047 -0.89804137  0.55700725]
  [-0.51932422  5.03128499 -0.49352645 -0.26799759]
  [-0.27059892 -0.83100218  0.         18.23382751]
  [-0.44939372 -2.02327457 -0.40360218 -0.53471198]]

 [[-1.70519201 -0.70194932 -0.50424698  0.09988223]
  [-0.46445879 -0.27700275 -0.3889018   2.54712652]
  [-0.26221687  0.67943891 -0.18832841  0.        ]
  [-0.03235958 21.45856236 -0.45005839  0.        ]
  [-0.23314557 -0.85491551 -0.35222717 24.99130104]]

 [[-0.97579535  1.94599921 -0.62089751 -0.57028136]
  [-0.42940388  7.36389331 -0.27293012  0.        ]
  [ 0.         12.38178581  0.          0.        ]
  [ 0.         19.20957634  0.          0.        ]
  [ 0.          0.          0.          0.        ]]]"
59,"[[[-4.22354387  5.37979254 -3.69629606 -2.42061712]
  [-2.21737744  7.58816023 -2.35541218 -1.4427129 ]
  [-1.37065614  9.9750343  -1.79462126 -0.27754165]
  [-0.95900377 -0.31421956 -0.87283891 12.53809593]
  [-0.36493234  0.          0.          0.        ]]

 [[-3.17504428 -1.25437038 -1.93569218 -2.04817603]
  [-1.69801284 -0.51579352 -1.30463398 -0.31312989]
  [-0.64423576 -0.25712617 -0.61876458  1.3216292 ]
  [-0.32701328 -0.32273595 -0.54277751 15.28728785]
  [-0.45313909  0.          0.         -0.23648315]]

 [[-1.63012093 -0.90793815 -1.29221046 -0.97043559]
  [-0.88334991  0.55156047 -0.89804137  0.55700725]
  [-0.51932422  5.03128499 -0.49352645 -0.26799759]
  [-0.27059892 -0.83100218  0.         18.24819211]
  [-0.44939372 -2.02327457 -0.40360218 -0.53471198]]

 [[-1.70519201 -0.70194932 -0.50424698  0.09988223]
  [-0.46445879 -0.27700275 -0.3889018   2.54712652]
  [-0.26221687  0.67943891 -0.18832841  0.        ]
  [-0.03235958 21.46419082 -0.45005839  0.        ]
  [-0.23314557 -0.85491551 -0.35222717 24.99260588]]

 [[-0.97579535  1.94599921 -0.62089751 -0.57028136]
  [-0.42940388  7.36389331 -0.27293012  0.        ]
  [ 0.         12.38178581  0.          0.        ]
  [ 0.         19.20957634  0.          0.        ]
  [ 0.          0.          0.          0.        ]]]"
60,"[[[-4.22354387  5.48698489 -3.69629606 -2.42061712]
  [-2.21737744  7.6765149  -2.35541218 -1.4427129 ]
  [-1.37065614 10.04158781 -1.79462126 -0.27754165]
  [-0.95900377 -0.31421956 -0.87283891 12.58290861]
  [-0.36493234  0.          0.          0.        ]]

 [[-3.17504428 -1.25437038 -1.93569218 -2.04817603]
  [-1.69801284 -0.51579352 -1.30463398 -0.31312989]
  [-0.64423576 -0.25712617 -0.61876458  1.3216292 ]
  [-0.32701328 -0.32273595 -0.54277751 15.31338387]
  [-0.45313909  0.          0.         -0.23648315]]

 [[-1.63012093 -0.90793815 -1.29221046 -0.97043559]
  [-0.88334991  0.55156047 -0.89804137  0.55700725]
  [-0.51932422  5.03128499 -0.49352645 -0.26799759]
  [-0.27059892 -0.83100218  0.         18.26082158]
  [-0.44939372 -2.02327457 -0.40360218 -0.53471198]]

 [[-1.70519201 -0.70194932 -0.50424698  0.09988223]
  [-0.46445879 -0.27700275 -0.3889018   2.54712652]
  [-0.26221687  0.67943891 -0.18832841  0.        ]
  [-0.03235958 21.4690631  -0.45005839  0.        ]
  [-0.23314557 -0.85491551 -0.35222717 24.993715  ]]

 [[-0.97579535  1.94599921 -0.62089751 -0.57028136]
  [-0.42940388  7.36389331 -0.27293012  0.        ]
  [ 0.         12.38178581  0.          0.        ]
  [ 0.         19.20957634  0.          0.        ]
  [ 0.          0.          0.          0.        ]]]"
